<GAP_2013_5_30_60_14_20_28_943>
<Potential label="GAP_2013_5_30_60_14_20_28_943" init_args="IP GAP"/>
<GAP_params label="GAP_2013_5_30_60_14_20_28_943" svn_version="11610">
  <GAP_data do_core="F" e0="-9.19483512529700064"/>
  <gpSparse label="GAP_2013_5_30_60_14_20_28_943" n_coordinate="1">
    <gpCoordinates label="GAP_2013_5_30_60_14_20_28_9431" dimensions="1576" signal_variance="1.00000000000000000" signal_mean="0.00000000000000000" sparsified="T" n_permutations="1" covariance_type="2" n_sparseX="2000" sparseX_filename="gp.xml.sparseX.GAP_2013_5_30_60_14_20_28_9431">
      <theta>  0.40000000000000000E+01 </theta>
      <descriptor>soap l_max=14 n_max=14 atom_sigma=0.5 zeta=4 cutoff=5.0 cutoff_transition_width=1.0 delta=1.0 f0=0.0 covariance_type=dot_product sparse_method=kmeans n_sparseX=2000</descriptor>
      <permutation i="1">1  </permutation>
      <sparseX i="1" alpha="65.26379993425908310" sparseCutoff="1.00000000000000000"/>
      <sparseX i="2" alpha="-68.10615573030179348" sparseCutoff="1.00000000000000000"/>
      <sparseX i="3" alpha="29.79792500462039939" sparseCutoff="1.00000000000000000"/>
      <sparseX i="4" alpha="-69.20000063321749906" sparseCutoff="1.00000000000000000"/>
      <sparseX i="5" alpha="34.70560465153286600" sparseCutoff="1.00000000000000000"/>
      <sparseX i="6" alpha="14.73902282206444347" sparseCutoff="1.00000000000000000"/>
      <sparseX i="7" alpha="145.98088827553172564" sparseCutoff="1.00000000000000000"/>
      <sparseX i="8" alpha="-214.48560863169950608" sparseCutoff="1.00000000000000000"/>
      <sparseX i="9" alpha="188.76203414507153866" sparseCutoff="1.00000000000000000"/>
      <sparseX i="10" alpha="328.30693311531888412" sparseCutoff="1.00000000000000000"/>
      <sparseX i="11" alpha="-45.07262758953340409" sparseCutoff="1.00000000000000000"/>
      <sparseX i="12" alpha="262.61453539816164948" sparseCutoff="1.00000000000000000"/>
      <sparseX i="13" alpha="33.71275025741536524" sparseCutoff="1.00000000000000000"/>
      <sparseX i="14" alpha="11.22612656130687192" sparseCutoff="1.00000000000000000"/>
      <sparseX i="15" alpha="-151.90457764740870061" sparseCutoff="1.00000000000000000"/>
      <sparseX i="16" alpha="-322.83249470027510597" sparseCutoff="1.00000000000000000"/>
      <sparseX i="17" alpha="-331.31794678743472105" sparseCutoff="1.00000000000000000"/>
      <sparseX i="18" alpha="-32.27242232862548832" sparseCutoff="1.00000000000000000"/>
      <sparseX i="19" alpha="-189.98876444330406343" sparseCutoff="1.00000000000000000"/>
      <sparseX i="20" alpha="-51.45432577054576484" sparseCutoff="1.00000000000000000"/>
      <sparseX i="21" alpha="-312.48248955523706627" sparseCutoff="1.00000000000000000"/>
      <sparseX i="22" alpha="-310.06137399899478169" sparseCutoff="1.00000000000000000"/>
      <sparseX i="23" alpha="-125.74820546688276579" sparseCutoff="1.00000000000000000"/>
      <sparseX i="24" alpha="-133.14664218937750206" sparseCutoff="1.00000000000000000"/>
      <sparseX i="25" alpha="254.52945034173043837" sparseCutoff="1.00000000000000000"/>
      <sparseX i="26" alpha="-180.78595624249396678" sparseCutoff="1.00000000000000000"/>
      <sparseX i="27" alpha="-240.01397361445319234" sparseCutoff="1.00000000000000000"/>
      <sparseX i="28" alpha="-232.57681730239985995" sparseCutoff="1.00000000000000000"/>
      <sparseX i="29" alpha="-188.93211675918988135" sparseCutoff="1.00000000000000000"/>
      <sparseX i="30" alpha="-328.49096171895257612" sparseCutoff="1.00000000000000000"/>
      <sparseX i="31" alpha="-3.92264322378805108" sparseCutoff="1.00000000000000000"/>
      <sparseX i="32" alpha="-57.03806049019905799" sparseCutoff="1.00000000000000000"/>
      <sparseX i="33" alpha="-197.10597940928562366" sparseCutoff="1.00000000000000000"/>
      <sparseX i="34" alpha="-213.61988089062185736" sparseCutoff="1.00000000000000000"/>
      <sparseX i="35" alpha="-140.91014116967943437" sparseCutoff="1.00000000000000000"/>
      <sparseX i="36" alpha="-116.01749045373561842" sparseCutoff="1.00000000000000000"/>
      <sparseX i="37" alpha="-99.98124633019918406" sparseCutoff="1.00000000000000000"/>
      <sparseX i="38" alpha="-319.73530293084553477" sparseCutoff="1.00000000000000000"/>
      <sparseX i="39" alpha="-23.99121832196087922" sparseCutoff="1.00000000000000000"/>
      <sparseX i="40" alpha="-159.54690639218952697" sparseCutoff="1.00000000000000000"/>
      <sparseX i="41" alpha="-471.66640452792773885" sparseCutoff="1.00000000000000000"/>
      <sparseX i="42" alpha="-2211.37346143270815446" sparseCutoff="1.00000000000000000"/>
      <sparseX i="43" alpha="631.12310821544178907" sparseCutoff="1.00000000000000000"/>
      <sparseX i="44" alpha="-145.00080119692779590" sparseCutoff="1.00000000000000000"/>
      <sparseX i="45" alpha="249.51130659671196099" sparseCutoff="1.00000000000000000"/>
      <sparseX i="46" alpha="-200.86462281811793673" sparseCutoff="1.00000000000000000"/>
      <sparseX i="47" alpha="-85.19374760072962260" sparseCutoff="1.00000000000000000"/>
      <sparseX i="48" alpha="-88.10062098178126178" sparseCutoff="1.00000000000000000"/>
      <sparseX i="49" alpha="397.83673966023235380" sparseCutoff="1.00000000000000000"/>
      <sparseX i="50" alpha="241.23006826522262713" sparseCutoff="1.00000000000000000"/>
      <sparseX i="51" alpha="533.35509189242441153" sparseCutoff="1.00000000000000000"/>
      <sparseX i="52" alpha="731.71250810978233403" sparseCutoff="1.00000000000000000"/>
      <sparseX i="53" alpha="796.36530096001149559" sparseCutoff="1.00000000000000000"/>
      <sparseX i="54" alpha="303.75427399352145130" sparseCutoff="1.00000000000000000"/>
      <sparseX i="55" alpha="-89.34347724755534159" sparseCutoff="1.00000000000000000"/>
      <sparseX i="56" alpha="-635.06950653957767372" sparseCutoff="1.00000000000000000"/>
      <sparseX i="57" alpha="-359.20143113561385917" sparseCutoff="1.00000000000000000"/>
      <sparseX i="58" alpha="-304.08756252895580019" sparseCutoff="1.00000000000000000"/>
      <sparseX i="59" alpha="-273.53035880759773590" sparseCutoff="1.00000000000000000"/>
      <sparseX i="60" alpha="-259.86061614050657909" sparseCutoff="1.00000000000000000"/>
      <sparseX i="61" alpha="-343.71636916412012397" sparseCutoff="1.00000000000000000"/>
      <sparseX i="62" alpha="517.33292988318771677" sparseCutoff="1.00000000000000000"/>
      <sparseX i="63" alpha="-300.20392313617907121" sparseCutoff="1.00000000000000000"/>
      <sparseX i="64" alpha="-36.15639299741329893" sparseCutoff="1.00000000000000000"/>
      <sparseX i="65" alpha="239.57781640538667034" sparseCutoff="1.00000000000000000"/>
      <sparseX i="66" alpha="70.51893143230120131" sparseCutoff="1.00000000000000000"/>
      <sparseX i="67" alpha="210.63914002295013006" sparseCutoff="1.00000000000000000"/>
      <sparseX i="68" alpha="113.67836796069396144" sparseCutoff="1.00000000000000000"/>
      <sparseX i="69" alpha="-111.92064433857494521" sparseCutoff="1.00000000000000000"/>
      <sparseX i="70" alpha="-290.71160850550450050" sparseCutoff="1.00000000000000000"/>
      <sparseX i="71" alpha="-530.59879373802482405" sparseCutoff="1.00000000000000000"/>
      <sparseX i="72" alpha="-726.75848544323287115" sparseCutoff="1.00000000000000000"/>
      <sparseX i="73" alpha="-719.39381889268145187" sparseCutoff="1.00000000000000000"/>
      <sparseX i="74" alpha="-47.34856901761477133" sparseCutoff="1.00000000000000000"/>
      <sparseX i="75" alpha="-637.24744199274596212" sparseCutoff="1.00000000000000000"/>
      <sparseX i="76" alpha="-388.67437392604762181" sparseCutoff="1.00000000000000000"/>
      <sparseX i="77" alpha="311.12613684926481028" sparseCutoff="1.00000000000000000"/>
      <sparseX i="78" alpha="200.47970766249866870" sparseCutoff="1.00000000000000000"/>
      <sparseX i="79" alpha="198.05225351390151900" sparseCutoff="1.00000000000000000"/>
      <sparseX i="80" alpha="-413.44824095658469787" sparseCutoff="1.00000000000000000"/>
      <sparseX i="81" alpha="-391.07321954151808541" sparseCutoff="1.00000000000000000"/>
      <sparseX i="82" alpha="-525.93815824174112095" sparseCutoff="1.00000000000000000"/>
      <sparseX i="83" alpha="242.70079110437475833" sparseCutoff="1.00000000000000000"/>
      <sparseX i="84" alpha="1077.97349479399440497" sparseCutoff="1.00000000000000000"/>
      <sparseX i="85" alpha="936.17262576597704538" sparseCutoff="1.00000000000000000"/>
      <sparseX i="86" alpha="240.86049415737548429" sparseCutoff="1.00000000000000000"/>
      <sparseX i="87" alpha="152.78097085229072150" sparseCutoff="1.00000000000000000"/>
      <sparseX i="88" alpha="60.26900138883726044" sparseCutoff="1.00000000000000000"/>
      <sparseX i="89" alpha="45.97381262976676908" sparseCutoff="1.00000000000000000"/>
      <sparseX i="90" alpha="17.40119056651742468" sparseCutoff="1.00000000000000000"/>
      <sparseX i="91" alpha="25.48636500685580941" sparseCutoff="1.00000000000000000"/>
      <sparseX i="92" alpha="-49.32987233746940348" sparseCutoff="1.00000000000000000"/>
      <sparseX i="93" alpha="24.24508964596141070" sparseCutoff="1.00000000000000000"/>
      <sparseX i="94" alpha="24.43613086751934205" sparseCutoff="1.00000000000000000"/>
      <sparseX i="95" alpha="-20.23532082155766787" sparseCutoff="1.00000000000000000"/>
      <sparseX i="96" alpha="-55.45940094552515376" sparseCutoff="1.00000000000000000"/>
      <sparseX i="97" alpha="-84.90455411131105734" sparseCutoff="1.00000000000000000"/>
      <sparseX i="98" alpha="-175.82239181095036429" sparseCutoff="1.00000000000000000"/>
      <sparseX i="99" alpha="-32.35949098045956163" sparseCutoff="1.00000000000000000"/>
      <sparseX i="100" alpha="-31.39563016941585261" sparseCutoff="1.00000000000000000"/>
      <sparseX i="101" alpha="-84.28664721565586149" sparseCutoff="1.00000000000000000"/>
      <sparseX i="102" alpha="-100.07295195603505533" sparseCutoff="1.00000000000000000"/>
      <sparseX i="103" alpha="-113.70966081740657216" sparseCutoff="1.00000000000000000"/>
      <sparseX i="104" alpha="5.77268685423261907" sparseCutoff="1.00000000000000000"/>
      <sparseX i="105" alpha="16.81321178211764433" sparseCutoff="1.00000000000000000"/>
      <sparseX i="106" alpha="6.41840413290084744" sparseCutoff="1.00000000000000000"/>
      <sparseX i="107" alpha="173.09413899964533812" sparseCutoff="1.00000000000000000"/>
      <sparseX i="108" alpha="-83.90223484578902458" sparseCutoff="1.00000000000000000"/>
      <sparseX i="109" alpha="-63.57055261269537283" sparseCutoff="1.00000000000000000"/>
      <sparseX i="110" alpha="210.34659934086232624" sparseCutoff="1.00000000000000000"/>
      <sparseX i="111" alpha="-98.96097490264877194" sparseCutoff="1.00000000000000000"/>
      <sparseX i="112" alpha="-21.24699435672404846" sparseCutoff="1.00000000000000000"/>
      <sparseX i="113" alpha="-207.14057056124281075" sparseCutoff="1.00000000000000000"/>
      <sparseX i="114" alpha="-1505.37497489063730427" sparseCutoff="1.00000000000000000"/>
      <sparseX i="115" alpha="943.54318678229549278" sparseCutoff="1.00000000000000000"/>
      <sparseX i="116" alpha="-187.65520828329087522" sparseCutoff="1.00000000000000000"/>
      <sparseX i="117" alpha="-148.39081665145911870" sparseCutoff="1.00000000000000000"/>
      <sparseX i="118" alpha="-148.75891979429343337" sparseCutoff="1.00000000000000000"/>
      <sparseX i="119" alpha="147.66241396117226259" sparseCutoff="1.00000000000000000"/>
      <sparseX i="120" alpha="91.05655190364235807" sparseCutoff="1.00000000000000000"/>
      <sparseX i="121" alpha="77.81599279138050917" sparseCutoff="1.00000000000000000"/>
      <sparseX i="122" alpha="-77.51764514622814772" sparseCutoff="1.00000000000000000"/>
      <sparseX i="123" alpha="102.28339021033507095" sparseCutoff="1.00000000000000000"/>
      <sparseX i="124" alpha="102.14578878154090091" sparseCutoff="1.00000000000000000"/>
      <sparseX i="125" alpha="160.42708063549761732" sparseCutoff="1.00000000000000000"/>
      <sparseX i="126" alpha="-94.99216201547277194" sparseCutoff="1.00000000000000000"/>
      <sparseX i="127" alpha="-119.64749310036783925" sparseCutoff="1.00000000000000000"/>
      <sparseX i="128" alpha="-190.35531542275231232" sparseCutoff="1.00000000000000000"/>
      <sparseX i="129" alpha="-394.10831961905898879" sparseCutoff="1.00000000000000000"/>
      <sparseX i="130" alpha="50.39148925164577975" sparseCutoff="1.00000000000000000"/>
      <sparseX i="131" alpha="-310.56094035593878289" sparseCutoff="1.00000000000000000"/>
      <sparseX i="132" alpha="138.70532716026789899" sparseCutoff="1.00000000000000000"/>
      <sparseX i="133" alpha="-43.81966861661579316" sparseCutoff="1.00000000000000000"/>
      <sparseX i="134" alpha="-26.85064231603136520" sparseCutoff="1.00000000000000000"/>
      <sparseX i="135" alpha="-155.97217141940555507" sparseCutoff="1.00000000000000000"/>
      <sparseX i="136" alpha="448.70450909780976190" sparseCutoff="1.00000000000000000"/>
      <sparseX i="137" alpha="448.76288976385427532" sparseCutoff="1.00000000000000000"/>
      <sparseX i="138" alpha="776.58536966266785839" sparseCutoff="1.00000000000000000"/>
      <sparseX i="139" alpha="715.18416815053910796" sparseCutoff="1.00000000000000000"/>
      <sparseX i="140" alpha="-155.62361283088071673" sparseCutoff="1.00000000000000000"/>
      <sparseX i="141" alpha="-183.69387683766245800" sparseCutoff="1.00000000000000000"/>
      <sparseX i="142" alpha="346.91399145105782509" sparseCutoff="1.00000000000000000"/>
      <sparseX i="143" alpha="-9.51182578027270687" sparseCutoff="1.00000000000000000"/>
      <sparseX i="144" alpha="396.33763258509492289" sparseCutoff="1.00000000000000000"/>
      <sparseX i="145" alpha="15.19178016077922422" sparseCutoff="1.00000000000000000"/>
      <sparseX i="146" alpha="-2.28141149003857890" sparseCutoff="1.00000000000000000"/>
      <sparseX i="147" alpha="-261.48013693146492642" sparseCutoff="1.00000000000000000"/>
      <sparseX i="148" alpha="15.58798637170349544" sparseCutoff="1.00000000000000000"/>
      <sparseX i="149" alpha="2.76727143260675224" sparseCutoff="1.00000000000000000"/>
      <sparseX i="150" alpha="403.20474645642826772" sparseCutoff="1.00000000000000000"/>
      <sparseX i="151" alpha="-333.46277434095571834" sparseCutoff="1.00000000000000000"/>
      <sparseX i="152" alpha="-337.37671224775198198" sparseCutoff="1.00000000000000000"/>
      <sparseX i="153" alpha="-68.57441473144648114" sparseCutoff="1.00000000000000000"/>
      <sparseX i="154" alpha="-71.21269001996709846" sparseCutoff="1.00000000000000000"/>
      <sparseX i="155" alpha="-0.49600464415676188" sparseCutoff="1.00000000000000000"/>
      <sparseX i="156" alpha="-33.02026275842116831" sparseCutoff="1.00000000000000000"/>
      <sparseX i="157" alpha="-24.56090854248615685" sparseCutoff="1.00000000000000000"/>
      <sparseX i="158" alpha="-72.98161797723770405" sparseCutoff="1.00000000000000000"/>
      <sparseX i="159" alpha="-222.95340670718101705" sparseCutoff="1.00000000000000000"/>
      <sparseX i="160" alpha="-172.98755510085473475" sparseCutoff="1.00000000000000000"/>
      <sparseX i="161" alpha="-172.88376374483752329" sparseCutoff="1.00000000000000000"/>
      <sparseX i="162" alpha="-170.52867762030621179" sparseCutoff="1.00000000000000000"/>
      <sparseX i="163" alpha="87.89386023625354483" sparseCutoff="1.00000000000000000"/>
      <sparseX i="164" alpha="70.37847107328164498" sparseCutoff="1.00000000000000000"/>
      <sparseX i="165" alpha="164.40183742063987893" sparseCutoff="1.00000000000000000"/>
      <sparseX i="166" alpha="186.50018665503117177" sparseCutoff="1.00000000000000000"/>
      <sparseX i="167" alpha="-23.67395543007288339" sparseCutoff="1.00000000000000000"/>
      <sparseX i="168" alpha="90.21165654249924160" sparseCutoff="1.00000000000000000"/>
      <sparseX i="169" alpha="-1.03121620931439661" sparseCutoff="1.00000000000000000"/>
      <sparseX i="170" alpha="-181.30037394336756051" sparseCutoff="1.00000000000000000"/>
      <sparseX i="171" alpha="-3.06110934575620730" sparseCutoff="1.00000000000000000"/>
      <sparseX i="172" alpha="91.26516816044976110" sparseCutoff="1.00000000000000000"/>
      <sparseX i="173" alpha="-96.90692033345449374" sparseCutoff="1.00000000000000000"/>
      <sparseX i="174" alpha="-89.63947903315266785" sparseCutoff="1.00000000000000000"/>
      <sparseX i="175" alpha="-191.06854309049495555" sparseCutoff="1.00000000000000000"/>
      <sparseX i="176" alpha="-56.75562882349298377" sparseCutoff="1.00000000000000000"/>
      <sparseX i="177" alpha="-61.74544871179397632" sparseCutoff="1.00000000000000000"/>
      <sparseX i="178" alpha="376.78268107998923142" sparseCutoff="1.00000000000000000"/>
      <sparseX i="179" alpha="-69.62769585300833342" sparseCutoff="1.00000000000000000"/>
      <sparseX i="180" alpha="-234.81736282741240984" sparseCutoff="1.00000000000000000"/>
      <sparseX i="181" alpha="-546.58259972772987112" sparseCutoff="1.00000000000000000"/>
      <sparseX i="182" alpha="-565.91516110986219701" sparseCutoff="1.00000000000000000"/>
      <sparseX i="183" alpha="-927.01895730083356284" sparseCutoff="1.00000000000000000"/>
      <sparseX i="184" alpha="-722.26103850933520789" sparseCutoff="1.00000000000000000"/>
      <sparseX i="185" alpha="66.41695163079974407" sparseCutoff="1.00000000000000000"/>
      <sparseX i="186" alpha="73.01437203907295270" sparseCutoff="1.00000000000000000"/>
      <sparseX i="187" alpha="126.04710861850483639" sparseCutoff="1.00000000000000000"/>
      <sparseX i="188" alpha="-298.98209002864729200" sparseCutoff="1.00000000000000000"/>
      <sparseX i="189" alpha="235.76013570185625667" sparseCutoff="1.00000000000000000"/>
      <sparseX i="190" alpha="393.61218209924720668" sparseCutoff="1.00000000000000000"/>
      <sparseX i="191" alpha="445.94863324449539732" sparseCutoff="1.00000000000000000"/>
      <sparseX i="192" alpha="502.79093999301693430" sparseCutoff="1.00000000000000000"/>
      <sparseX i="193" alpha="234.48640430465428608" sparseCutoff="1.00000000000000000"/>
      <sparseX i="194" alpha="53.63435458058456362" sparseCutoff="1.00000000000000000"/>
      <sparseX i="195" alpha="-184.30945623906200126" sparseCutoff="1.00000000000000000"/>
      <sparseX i="196" alpha="295.54270043760152475" sparseCutoff="1.00000000000000000"/>
      <sparseX i="197" alpha="98.61681918150213733" sparseCutoff="1.00000000000000000"/>
      <sparseX i="198" alpha="-91.55187883675000649" sparseCutoff="1.00000000000000000"/>
      <sparseX i="199" alpha="-299.23044765026332925" sparseCutoff="1.00000000000000000"/>
      <sparseX i="200" alpha="119.23216796531836792" sparseCutoff="1.00000000000000000"/>
      <sparseX i="201" alpha="236.98149626002145851" sparseCutoff="1.00000000000000000"/>
      <sparseX i="202" alpha="631.79244182454260681" sparseCutoff="1.00000000000000000"/>
      <sparseX i="203" alpha="-739.13469349567674271" sparseCutoff="1.00000000000000000"/>
      <sparseX i="204" alpha="-475.31722154174593697" sparseCutoff="1.00000000000000000"/>
      <sparseX i="205" alpha="-122.44566306071014594" sparseCutoff="1.00000000000000000"/>
      <sparseX i="206" alpha="-218.58339613243362010" sparseCutoff="1.00000000000000000"/>
      <sparseX i="207" alpha="194.83377526496960286" sparseCutoff="1.00000000000000000"/>
      <sparseX i="208" alpha="108.57398924118851369" sparseCutoff="1.00000000000000000"/>
      <sparseX i="209" alpha="-269.57686045874498859" sparseCutoff="1.00000000000000000"/>
      <sparseX i="210" alpha="383.73662172898610834" sparseCutoff="1.00000000000000000"/>
      <sparseX i="211" alpha="267.89026398447828115" sparseCutoff="1.00000000000000000"/>
      <sparseX i="212" alpha="53.82247771534591863" sparseCutoff="1.00000000000000000"/>
      <sparseX i="213" alpha="73.50837443506451052" sparseCutoff="1.00000000000000000"/>
      <sparseX i="214" alpha="-241.93280178784297618" sparseCutoff="1.00000000000000000"/>
      <sparseX i="215" alpha="-2.59228947559140188" sparseCutoff="1.00000000000000000"/>
      <sparseX i="216" alpha="86.11617347685717050" sparseCutoff="1.00000000000000000"/>
      <sparseX i="217" alpha="70.20581071309968024" sparseCutoff="1.00000000000000000"/>
      <sparseX i="218" alpha="228.19716040522698108" sparseCutoff="1.00000000000000000"/>
      <sparseX i="219" alpha="218.59282220278421960" sparseCutoff="1.00000000000000000"/>
      <sparseX i="220" alpha="-88.26679825471761376" sparseCutoff="1.00000000000000000"/>
      <sparseX i="221" alpha="-60.44308475229621536" sparseCutoff="1.00000000000000000"/>
      <sparseX i="222" alpha="82.79664200682201169" sparseCutoff="1.00000000000000000"/>
      <sparseX i="223" alpha="205.50704071049662502" sparseCutoff="1.00000000000000000"/>
      <sparseX i="224" alpha="119.64660231004580737" sparseCutoff="1.00000000000000000"/>
      <sparseX i="225" alpha="205.03409412966917102" sparseCutoff="1.00000000000000000"/>
      <sparseX i="226" alpha="49.75918843394352109" sparseCutoff="1.00000000000000000"/>
      <sparseX i="227" alpha="-47.28806184867546847" sparseCutoff="1.00000000000000000"/>
      <sparseX i="228" alpha="41.42396469698773132" sparseCutoff="1.00000000000000000"/>
      <sparseX i="229" alpha="119.95891361667915476" sparseCutoff="1.00000000000000000"/>
      <sparseX i="230" alpha="-65.69341714149793177" sparseCutoff="1.00000000000000000"/>
      <sparseX i="231" alpha="-86.82700475011637309" sparseCutoff="1.00000000000000000"/>
      <sparseX i="232" alpha="245.83854371539135286" sparseCutoff="1.00000000000000000"/>
      <sparseX i="233" alpha="113.04347765845913898" sparseCutoff="1.00000000000000000"/>
      <sparseX i="234" alpha="-307.71710186192257197" sparseCutoff="1.00000000000000000"/>
      <sparseX i="235" alpha="-309.14916763577332404" sparseCutoff="1.00000000000000000"/>
      <sparseX i="236" alpha="-715.31401851985822304" sparseCutoff="1.00000000000000000"/>
      <sparseX i="237" alpha="-763.42757130502570817" sparseCutoff="1.00000000000000000"/>
      <sparseX i="238" alpha="192.84896562590009239" sparseCutoff="1.00000000000000000"/>
      <sparseX i="239" alpha="62.29652974054079095" sparseCutoff="1.00000000000000000"/>
      <sparseX i="240" alpha="51.44732257951657317" sparseCutoff="1.00000000000000000"/>
      <sparseX i="241" alpha="72.17885787764096506" sparseCutoff="1.00000000000000000"/>
      <sparseX i="242" alpha="-372.74754527215134203" sparseCutoff="1.00000000000000000"/>
      <sparseX i="243" alpha="-494.58315160483380168" sparseCutoff="1.00000000000000000"/>
      <sparseX i="244" alpha="-538.05880422428481324" sparseCutoff="1.00000000000000000"/>
      <sparseX i="245" alpha="-412.36904050297050617" sparseCutoff="1.00000000000000000"/>
      <sparseX i="246" alpha="-413.58476604854899961" sparseCutoff="1.00000000000000000"/>
      <sparseX i="247" alpha="-374.35006444212490351" sparseCutoff="1.00000000000000000"/>
      <sparseX i="248" alpha="-627.31728049732964791" sparseCutoff="1.00000000000000000"/>
      <sparseX i="249" alpha="-253.45634314881991145" sparseCutoff="1.00000000000000000"/>
      <sparseX i="250" alpha="-454.35502420656024469" sparseCutoff="1.00000000000000000"/>
      <sparseX i="251" alpha="-311.98388417677620055" sparseCutoff="1.00000000000000000"/>
      <sparseX i="252" alpha="39.81942322609743456" sparseCutoff="1.00000000000000000"/>
      <sparseX i="253" alpha="88.34515733026016449" sparseCutoff="1.00000000000000000"/>
      <sparseX i="254" alpha="27.72383877153389875" sparseCutoff="1.00000000000000000"/>
      <sparseX i="255" alpha="-130.44162325431148020" sparseCutoff="1.00000000000000000"/>
      <sparseX i="256" alpha="41.25444682978194066" sparseCutoff="1.00000000000000000"/>
      <sparseX i="257" alpha="168.17232164611749567" sparseCutoff="1.00000000000000000"/>
      <sparseX i="258" alpha="-263.14135021214536891" sparseCutoff="1.00000000000000000"/>
      <sparseX i="259" alpha="-289.68890585894365586" sparseCutoff="1.00000000000000000"/>
      <sparseX i="260" alpha="-267.00244908721873571" sparseCutoff="1.00000000000000000"/>
      <sparseX i="261" alpha="-134.09296961306156959" sparseCutoff="1.00000000000000000"/>
      <sparseX i="262" alpha="-146.12788397909423566" sparseCutoff="1.00000000000000000"/>
      <sparseX i="263" alpha="-131.46619746511481708" sparseCutoff="1.00000000000000000"/>
      <sparseX i="264" alpha="383.62765099285644510" sparseCutoff="1.00000000000000000"/>
      <sparseX i="265" alpha="-223.36351801995101596" sparseCutoff="1.00000000000000000"/>
      <sparseX i="266" alpha="-879.99698435975312805" sparseCutoff="1.00000000000000000"/>
      <sparseX i="267" alpha="-976.76857959002302323" sparseCutoff="1.00000000000000000"/>
      <sparseX i="268" alpha="337.39061907448785860" sparseCutoff="1.00000000000000000"/>
      <sparseX i="269" alpha="1018.31508362026056602" sparseCutoff="1.00000000000000000"/>
      <sparseX i="270" alpha="258.23156507917445879" sparseCutoff="1.00000000000000000"/>
      <sparseX i="271" alpha="286.43263615267676414" sparseCutoff="1.00000000000000000"/>
      <sparseX i="272" alpha="-4.20620142330782087" sparseCutoff="1.00000000000000000"/>
      <sparseX i="273" alpha="39.44854538437326852" sparseCutoff="1.00000000000000000"/>
      <sparseX i="274" alpha="-11.87297904825791584" sparseCutoff="1.00000000000000000"/>
      <sparseX i="275" alpha="94.17426931322380312" sparseCutoff="1.00000000000000000"/>
      <sparseX i="276" alpha="74.72934962279241233" sparseCutoff="1.00000000000000000"/>
      <sparseX i="277" alpha="-164.12800194363191508" sparseCutoff="1.00000000000000000"/>
      <sparseX i="278" alpha="-127.67831777016078831" sparseCutoff="1.00000000000000000"/>
      <sparseX i="279" alpha="66.40222444180454886" sparseCutoff="1.00000000000000000"/>
      <sparseX i="280" alpha="80.94252532738774164" sparseCutoff="1.00000000000000000"/>
      <sparseX i="281" alpha="278.56201015775491214" sparseCutoff="1.00000000000000000"/>
      <sparseX i="282" alpha="-1719.05642224599182555" sparseCutoff="1.00000000000000000"/>
      <sparseX i="283" alpha="760.72859636712337306" sparseCutoff="1.00000000000000000"/>
      <sparseX i="284" alpha="-332.20151126056185831" sparseCutoff="1.00000000000000000"/>
      <sparseX i="285" alpha="-132.59846698578752466" sparseCutoff="1.00000000000000000"/>
      <sparseX i="286" alpha="49.20865105985562593" sparseCutoff="1.00000000000000000"/>
      <sparseX i="287" alpha="-657.05365741839727889" sparseCutoff="1.00000000000000000"/>
      <sparseX i="288" alpha="-1716.29924696102511916" sparseCutoff="1.00000000000000000"/>
      <sparseX i="289" alpha="1438.68748785456773476" sparseCutoff="1.00000000000000000"/>
      <sparseX i="290" alpha="-210.95029439115694458" sparseCutoff="1.00000000000000000"/>
      <sparseX i="291" alpha="163.69547752941940644" sparseCutoff="1.00000000000000000"/>
      <sparseX i="292" alpha="-862.38327030544076024" sparseCutoff="1.00000000000000000"/>
      <sparseX i="293" alpha="-171.18032792361918837" sparseCutoff="1.00000000000000000"/>
      <sparseX i="294" alpha="-256.97879751960061867" sparseCutoff="1.00000000000000000"/>
      <sparseX i="295" alpha="1510.28683444488297027" sparseCutoff="1.00000000000000000"/>
      <sparseX i="296" alpha="1176.53664790841639842" sparseCutoff="1.00000000000000000"/>
      <sparseX i="297" alpha="-672.93039831010548824" sparseCutoff="1.00000000000000000"/>
      <sparseX i="298" alpha="-1616.01399944048603174" sparseCutoff="1.00000000000000000"/>
      <sparseX i="299" alpha="18.90630073408573253" sparseCutoff="1.00000000000000000"/>
      <sparseX i="300" alpha="-350.03443209502836453" sparseCutoff="1.00000000000000000"/>
      <sparseX i="301" alpha="-221.42240337380553683" sparseCutoff="1.00000000000000000"/>
      <sparseX i="302" alpha="-323.23517304252266058" sparseCutoff="1.00000000000000000"/>
      <sparseX i="303" alpha="-422.19854972674295368" sparseCutoff="1.00000000000000000"/>
      <sparseX i="304" alpha="-159.00764987609557011" sparseCutoff="1.00000000000000000"/>
      <sparseX i="305" alpha="-77.94447229770760543" sparseCutoff="1.00000000000000000"/>
      <sparseX i="306" alpha="113.43465024336818203" sparseCutoff="1.00000000000000000"/>
      <sparseX i="307" alpha="-329.05819617575826896" sparseCutoff="1.00000000000000000"/>
      <sparseX i="308" alpha="-319.09359021248661747" sparseCutoff="1.00000000000000000"/>
      <sparseX i="309" alpha="-149.33201628116702864" sparseCutoff="1.00000000000000000"/>
      <sparseX i="310" alpha="85.34492914528038909" sparseCutoff="1.00000000000000000"/>
      <sparseX i="311" alpha="755.34047915356939029" sparseCutoff="1.00000000000000000"/>
      <sparseX i="312" alpha="-299.85143255549508012" sparseCutoff="1.00000000000000000"/>
      <sparseX i="313" alpha="28.62141084686548709" sparseCutoff="1.00000000000000000"/>
      <sparseX i="314" alpha="26.91272266795214207" sparseCutoff="1.00000000000000000"/>
      <sparseX i="315" alpha="29.07854822781414228" sparseCutoff="1.00000000000000000"/>
      <sparseX i="316" alpha="-99.52942093689009084" sparseCutoff="1.00000000000000000"/>
      <sparseX i="317" alpha="-186.03187402686504015" sparseCutoff="1.00000000000000000"/>
      <sparseX i="318" alpha="136.36411818882305624" sparseCutoff="1.00000000000000000"/>
      <sparseX i="319" alpha="171.80576865875306680" sparseCutoff="1.00000000000000000"/>
      <sparseX i="320" alpha="420.24955071702748910" sparseCutoff="1.00000000000000000"/>
      <sparseX i="321" alpha="427.11616037291577186" sparseCutoff="1.00000000000000000"/>
      <sparseX i="322" alpha="667.63575816863124146" sparseCutoff="1.00000000000000000"/>
      <sparseX i="323" alpha="-72.61572984761717464" sparseCutoff="1.00000000000000000"/>
      <sparseX i="324" alpha="-650.17809399272562132" sparseCutoff="1.00000000000000000"/>
      <sparseX i="325" alpha="63.35179282738998552" sparseCutoff="1.00000000000000000"/>
      <sparseX i="326" alpha="-228.02404875484518243" sparseCutoff="1.00000000000000000"/>
      <sparseX i="327" alpha="-91.80142177283123317" sparseCutoff="1.00000000000000000"/>
      <sparseX i="328" alpha="-191.65642958463251944" sparseCutoff="1.00000000000000000"/>
      <sparseX i="329" alpha="-85.50257852623767008" sparseCutoff="1.00000000000000000"/>
      <sparseX i="330" alpha="191.98480097836971936" sparseCutoff="1.00000000000000000"/>
      <sparseX i="331" alpha="130.94245055000592970" sparseCutoff="1.00000000000000000"/>
      <sparseX i="332" alpha="-420.29250918541202964" sparseCutoff="1.00000000000000000"/>
      <sparseX i="333" alpha="-379.84134627236414872" sparseCutoff="1.00000000000000000"/>
      <sparseX i="334" alpha="-190.72628382097457234" sparseCutoff="1.00000000000000000"/>
      <sparseX i="335" alpha="-169.08626519423935974" sparseCutoff="1.00000000000000000"/>
      <sparseX i="336" alpha="407.83764726553863511" sparseCutoff="1.00000000000000000"/>
      <sparseX i="337" alpha="867.40342663591070504" sparseCutoff="1.00000000000000000"/>
      <sparseX i="338" alpha="380.72945127436770463" sparseCutoff="1.00000000000000000"/>
      <sparseX i="339" alpha="-2699.63822271892240678" sparseCutoff="1.00000000000000000"/>
      <sparseX i="340" alpha="736.99568700662541687" sparseCutoff="1.00000000000000000"/>
      <sparseX i="341" alpha="394.08845334717642572" sparseCutoff="1.00000000000000000"/>
      <sparseX i="342" alpha="1296.64691603843016310" sparseCutoff="1.00000000000000000"/>
      <sparseX i="343" alpha="-397.92596601491925412" sparseCutoff="1.00000000000000000"/>
      <sparseX i="344" alpha="-1386.54932199165568818" sparseCutoff="1.00000000000000000"/>
      <sparseX i="345" alpha="-384.46534681704969216" sparseCutoff="1.00000000000000000"/>
      <sparseX i="346" alpha="144.21382279361674250" sparseCutoff="1.00000000000000000"/>
      <sparseX i="347" alpha="433.44909738804688004" sparseCutoff="1.00000000000000000"/>
      <sparseX i="348" alpha="132.39865746270100999" sparseCutoff="1.00000000000000000"/>
      <sparseX i="349" alpha="-104.72026191430855135" sparseCutoff="1.00000000000000000"/>
      <sparseX i="350" alpha="-185.82807130070634116" sparseCutoff="1.00000000000000000"/>
      <sparseX i="351" alpha="7.38557172992105482" sparseCutoff="1.00000000000000000"/>
      <sparseX i="352" alpha="-51.10293840878037486" sparseCutoff="1.00000000000000000"/>
      <sparseX i="353" alpha="-192.56145035042189306" sparseCutoff="1.00000000000000000"/>
      <sparseX i="354" alpha="-192.44123508914415766" sparseCutoff="1.00000000000000000"/>
      <sparseX i="355" alpha="-87.82355457161887102" sparseCutoff="1.00000000000000000"/>
      <sparseX i="356" alpha="46.30737298566211280" sparseCutoff="1.00000000000000000"/>
      <sparseX i="357" alpha="1.39766624231251502" sparseCutoff="1.00000000000000000"/>
      <sparseX i="358" alpha="-157.17799285958500377" sparseCutoff="1.00000000000000000"/>
      <sparseX i="359" alpha="-126.84341497137582166" sparseCutoff="1.00000000000000000"/>
      <sparseX i="360" alpha="105.49053047116039750" sparseCutoff="1.00000000000000000"/>
      <sparseX i="361" alpha="152.99353990843957263" sparseCutoff="1.00000000000000000"/>
      <sparseX i="362" alpha="167.14964352555139726" sparseCutoff="1.00000000000000000"/>
      <sparseX i="363" alpha="143.27126694008674690" sparseCutoff="1.00000000000000000"/>
      <sparseX i="364" alpha="182.71078161200841805" sparseCutoff="1.00000000000000000"/>
      <sparseX i="365" alpha="215.58138398246700262" sparseCutoff="1.00000000000000000"/>
      <sparseX i="366" alpha="296.13949125035435372" sparseCutoff="1.00000000000000000"/>
      <sparseX i="367" alpha="256.20937121797152258" sparseCutoff="1.00000000000000000"/>
      <sparseX i="368" alpha="195.39371198199773971" sparseCutoff="1.00000000000000000"/>
      <sparseX i="369" alpha="183.94372805594639431" sparseCutoff="1.00000000000000000"/>
      <sparseX i="370" alpha="118.36003584093829488" sparseCutoff="1.00000000000000000"/>
      <sparseX i="371" alpha="-158.91963142474187975" sparseCutoff="1.00000000000000000"/>
      <sparseX i="372" alpha="283.25608812056538000" sparseCutoff="1.00000000000000000"/>
      <sparseX i="373" alpha="279.48166767445314917" sparseCutoff="1.00000000000000000"/>
      <sparseX i="374" alpha="86.14147571865325403" sparseCutoff="1.00000000000000000"/>
      <sparseX i="375" alpha="84.61445879125577108" sparseCutoff="1.00000000000000000"/>
      <sparseX i="376" alpha="-70.59418703934530015" sparseCutoff="1.00000000000000000"/>
      <sparseX i="377" alpha="45.70507864588547875" sparseCutoff="1.00000000000000000"/>
      <sparseX i="378" alpha="-65.84730169605597894" sparseCutoff="1.00000000000000000"/>
      <sparseX i="379" alpha="-369.91258809751332137" sparseCutoff="1.00000000000000000"/>
      <sparseX i="380" alpha="-283.56301143958910416" sparseCutoff="1.00000000000000000"/>
      <sparseX i="381" alpha="1248.83915359776256082" sparseCutoff="1.00000000000000000"/>
      <sparseX i="382" alpha="232.31678299501143670" sparseCutoff="1.00000000000000000"/>
      <sparseX i="383" alpha="447.31865141541265984" sparseCutoff="1.00000000000000000"/>
      <sparseX i="384" alpha="-1133.69858231754255939" sparseCutoff="1.00000000000000000"/>
      <sparseX i="385" alpha="-845.18223750938625471" sparseCutoff="1.00000000000000000"/>
      <sparseX i="386" alpha="1140.95350551578758314" sparseCutoff="1.00000000000000000"/>
      <sparseX i="387" alpha="1323.42939311443728911" sparseCutoff="1.00000000000000000"/>
      <sparseX i="388" alpha="-859.04075875699061271" sparseCutoff="1.00000000000000000"/>
      <sparseX i="389" alpha="-249.31177111415689751" sparseCutoff="1.00000000000000000"/>
      <sparseX i="390" alpha="-244.63883966647449597" sparseCutoff="1.00000000000000000"/>
      <sparseX i="391" alpha="-689.70498254875622024" sparseCutoff="1.00000000000000000"/>
      <sparseX i="392" alpha="1868.23468400649403520" sparseCutoff="1.00000000000000000"/>
      <sparseX i="393" alpha="-2729.76927080319956076" sparseCutoff="1.00000000000000000"/>
      <sparseX i="394" alpha="1031.25285297658547279" sparseCutoff="1.00000000000000000"/>
      <sparseX i="395" alpha="2585.90846873116151983" sparseCutoff="1.00000000000000000"/>
      <sparseX i="396" alpha="-416.04493781998195345" sparseCutoff="1.00000000000000000"/>
      <sparseX i="397" alpha="-749.66909049267951559" sparseCutoff="1.00000000000000000"/>
      <sparseX i="398" alpha="-549.01314293115819964" sparseCutoff="1.00000000000000000"/>
      <sparseX i="399" alpha="-695.91319395185144003" sparseCutoff="1.00000000000000000"/>
      <sparseX i="400" alpha="-805.43632690879883285" sparseCutoff="1.00000000000000000"/>
      <sparseX i="401" alpha="-267.28264908838769998" sparseCutoff="1.00000000000000000"/>
      <sparseX i="402" alpha="-223.67801738609708195" sparseCutoff="1.00000000000000000"/>
      <sparseX i="403" alpha="-911.52695145658424281" sparseCutoff="1.00000000000000000"/>
      <sparseX i="404" alpha="139.94061162660221953" sparseCutoff="1.00000000000000000"/>
      <sparseX i="405" alpha="60.32061969616445651" sparseCutoff="1.00000000000000000"/>
      <sparseX i="406" alpha="-46.19594705556443870" sparseCutoff="1.00000000000000000"/>
      <sparseX i="407" alpha="-99.99142635287103076" sparseCutoff="1.00000000000000000"/>
      <sparseX i="408" alpha="3.85815538434208483" sparseCutoff="1.00000000000000000"/>
      <sparseX i="409" alpha="12.61363113642370770" sparseCutoff="1.00000000000000000"/>
      <sparseX i="410" alpha="-36.71034064593403201" sparseCutoff="1.00000000000000000"/>
      <sparseX i="411" alpha="-26.10960671222560592" sparseCutoff="1.00000000000000000"/>
      <sparseX i="412" alpha="-35.21072821420553112" sparseCutoff="1.00000000000000000"/>
      <sparseX i="413" alpha="-234.41379432209711808" sparseCutoff="1.00000000000000000"/>
      <sparseX i="414" alpha="74.13192767599055344" sparseCutoff="1.00000000000000000"/>
      <sparseX i="415" alpha="-115.71444748378463885" sparseCutoff="1.00000000000000000"/>
      <sparseX i="416" alpha="-63.23992114523222341" sparseCutoff="1.00000000000000000"/>
      <sparseX i="417" alpha="162.88472935068094216" sparseCutoff="1.00000000000000000"/>
      <sparseX i="418" alpha="185.81428966745394860" sparseCutoff="1.00000000000000000"/>
      <sparseX i="419" alpha="169.79481377186033342" sparseCutoff="1.00000000000000000"/>
      <sparseX i="420" alpha="-49.71613243625665035" sparseCutoff="1.00000000000000000"/>
      <sparseX i="421" alpha="-13.37501259919137198" sparseCutoff="1.00000000000000000"/>
      <sparseX i="422" alpha="-11.90471403767153724" sparseCutoff="1.00000000000000000"/>
      <sparseX i="423" alpha="57.17883743239154626" sparseCutoff="1.00000000000000000"/>
      <sparseX i="424" alpha="-29.01671894155918352" sparseCutoff="1.00000000000000000"/>
      <sparseX i="425" alpha="7.17486510758534646" sparseCutoff="1.00000000000000000"/>
      <sparseX i="426" alpha="15.67823069214365894" sparseCutoff="1.00000000000000000"/>
      <sparseX i="427" alpha="20.92844178545129097" sparseCutoff="1.00000000000000000"/>
      <sparseX i="428" alpha="104.42570728073003750" sparseCutoff="1.00000000000000000"/>
      <sparseX i="429" alpha="130.14587976754208398" sparseCutoff="1.00000000000000000"/>
      <sparseX i="430" alpha="154.17905734284508412" sparseCutoff="1.00000000000000000"/>
      <sparseX i="431" alpha="181.98431600312196110" sparseCutoff="1.00000000000000000"/>
      <sparseX i="432" alpha="198.14800920410712592" sparseCutoff="1.00000000000000000"/>
      <sparseX i="433" alpha="167.32225399297865920" sparseCutoff="1.00000000000000000"/>
      <sparseX i="434" alpha="-9.04039311485934682" sparseCutoff="1.00000000000000000"/>
      <sparseX i="435" alpha="-25.28536546828108200" sparseCutoff="1.00000000000000000"/>
      <sparseX i="436" alpha="5.66505751661233248" sparseCutoff="1.00000000000000000"/>
      <sparseX i="437" alpha="-20.75533078367597639" sparseCutoff="1.00000000000000000"/>
      <sparseX i="438" alpha="-145.90582130444272480" sparseCutoff="1.00000000000000000"/>
      <sparseX i="439" alpha="-149.31189012074790412" sparseCutoff="1.00000000000000000"/>
      <sparseX i="440" alpha="305.35226776593486875" sparseCutoff="1.00000000000000000"/>
      <sparseX i="441" alpha="457.97850356897185975" sparseCutoff="1.00000000000000000"/>
      <sparseX i="442" alpha="1100.94345705861837814" sparseCutoff="1.00000000000000000"/>
      <sparseX i="443" alpha="967.19732651784318023" sparseCutoff="1.00000000000000000"/>
      <sparseX i="444" alpha="805.07226580646431557" sparseCutoff="1.00000000000000000"/>
      <sparseX i="445" alpha="-226.37060499570864636" sparseCutoff="1.00000000000000000"/>
      <sparseX i="446" alpha="-892.73606976082032816" sparseCutoff="1.00000000000000000"/>
      <sparseX i="447" alpha="165.56583470627526822" sparseCutoff="1.00000000000000000"/>
      <sparseX i="448" alpha="-190.51902198120438925" sparseCutoff="1.00000000000000000"/>
      <sparseX i="449" alpha="1373.84497113003772029" sparseCutoff="1.00000000000000000"/>
      <sparseX i="450" alpha="-298.04139350472297565" sparseCutoff="1.00000000000000000"/>
      <sparseX i="451" alpha="337.81258774281326396" sparseCutoff="1.00000000000000000"/>
      <sparseX i="452" alpha="-513.94117510064825183" sparseCutoff="1.00000000000000000"/>
      <sparseX i="453" alpha="1043.92609518392009704" sparseCutoff="1.00000000000000000"/>
      <sparseX i="454" alpha="78.98790411594791294" sparseCutoff="1.00000000000000000"/>
      <sparseX i="455" alpha="-72.62749216260208129" sparseCutoff="1.00000000000000000"/>
      <sparseX i="456" alpha="-16.39365499795444947" sparseCutoff="1.00000000000000000"/>
      <sparseX i="457" alpha="62.53913456537370763" sparseCutoff="1.00000000000000000"/>
      <sparseX i="458" alpha="-306.15203912224683336" sparseCutoff="1.00000000000000000"/>
      <sparseX i="459" alpha="-178.85142364663127523" sparseCutoff="1.00000000000000000"/>
      <sparseX i="460" alpha="-118.60080449584421558" sparseCutoff="1.00000000000000000"/>
      <sparseX i="461" alpha="-47.70466176318213769" sparseCutoff="1.00000000000000000"/>
      <sparseX i="462" alpha="-54.27784931470158369" sparseCutoff="1.00000000000000000"/>
      <sparseX i="463" alpha="-48.37227319687580263" sparseCutoff="1.00000000000000000"/>
      <sparseX i="464" alpha="193.73023832736353711" sparseCutoff="1.00000000000000000"/>
      <sparseX i="465" alpha="252.78773762877452214" sparseCutoff="1.00000000000000000"/>
      <sparseX i="466" alpha="193.75491810621718969" sparseCutoff="1.00000000000000000"/>
      <sparseX i="467" alpha="-154.55984486367955810" sparseCutoff="1.00000000000000000"/>
      <sparseX i="468" alpha="212.25099221622900814" sparseCutoff="1.00000000000000000"/>
      <sparseX i="469" alpha="218.16722431957089157" sparseCutoff="1.00000000000000000"/>
      <sparseX i="470" alpha="-279.84801072329599947" sparseCutoff="1.00000000000000000"/>
      <sparseX i="471" alpha="-265.24533801867499960" sparseCutoff="1.00000000000000000"/>
      <sparseX i="472" alpha="-263.96557317964862932" sparseCutoff="1.00000000000000000"/>
      <sparseX i="473" alpha="114.08624570544469634" sparseCutoff="1.00000000000000000"/>
      <sparseX i="474" alpha="-72.86449471545066103" sparseCutoff="1.00000000000000000"/>
      <sparseX i="475" alpha="-71.64341461203365213" sparseCutoff="1.00000000000000000"/>
      <sparseX i="476" alpha="298.21622922395533806" sparseCutoff="1.00000000000000000"/>
      <sparseX i="477" alpha="282.37791102641358520" sparseCutoff="1.00000000000000000"/>
      <sparseX i="478" alpha="25.18436991401453184" sparseCutoff="1.00000000000000000"/>
      <sparseX i="479" alpha="41.57033510570569490" sparseCutoff="1.00000000000000000"/>
      <sparseX i="480" alpha="86.33212633121347324" sparseCutoff="1.00000000000000000"/>
      <sparseX i="481" alpha="124.42398687103619181" sparseCutoff="1.00000000000000000"/>
      <sparseX i="482" alpha="192.38870865568546265" sparseCutoff="1.00000000000000000"/>
      <sparseX i="483" alpha="153.79485999691036113" sparseCutoff="1.00000000000000000"/>
      <sparseX i="484" alpha="16.38053744440526316" sparseCutoff="1.00000000000000000"/>
      <sparseX i="485" alpha="-129.48375339944234952" sparseCutoff="1.00000000000000000"/>
      <sparseX i="486" alpha="-14.29790434543417810" sparseCutoff="1.00000000000000000"/>
      <sparseX i="487" alpha="-103.04319006435966344" sparseCutoff="1.00000000000000000"/>
      <sparseX i="488" alpha="15.31615017811780177" sparseCutoff="1.00000000000000000"/>
      <sparseX i="489" alpha="66.57889741944514128" sparseCutoff="1.00000000000000000"/>
      <sparseX i="490" alpha="58.18791209170704803" sparseCutoff="1.00000000000000000"/>
      <sparseX i="491" alpha="-109.45395904344447047" sparseCutoff="1.00000000000000000"/>
      <sparseX i="492" alpha="-6.17444610723158416" sparseCutoff="1.00000000000000000"/>
      <sparseX i="493" alpha="344.43844349079728318" sparseCutoff="1.00000000000000000"/>
      <sparseX i="494" alpha="12.41822752992311507" sparseCutoff="1.00000000000000000"/>
      <sparseX i="495" alpha="14.93820509727057555" sparseCutoff="1.00000000000000000"/>
      <sparseX i="496" alpha="5.62929564711395436" sparseCutoff="1.00000000000000000"/>
      <sparseX i="497" alpha="-226.85439251666170435" sparseCutoff="1.00000000000000000"/>
      <sparseX i="498" alpha="18.38107124102902645" sparseCutoff="1.00000000000000000"/>
      <sparseX i="499" alpha="-331.76205243277206591" sparseCutoff="1.00000000000000000"/>
      <sparseX i="500" alpha="187.04808617130302650" sparseCutoff="1.00000000000000000"/>
      <sparseX i="501" alpha="89.77706023480106978" sparseCutoff="1.00000000000000000"/>
      <sparseX i="502" alpha="-301.00748491533721563" sparseCutoff="1.00000000000000000"/>
      <sparseX i="503" alpha="1839.39747612767973806" sparseCutoff="1.00000000000000000"/>
      <sparseX i="504" alpha="-386.01267073841069077" sparseCutoff="1.00000000000000000"/>
      <sparseX i="505" alpha="843.04363559898081348" sparseCutoff="1.00000000000000000"/>
      <sparseX i="506" alpha="-416.52235735332430977" sparseCutoff="1.00000000000000000"/>
      <sparseX i="507" alpha="-182.24069473206517955" sparseCutoff="1.00000000000000000"/>
      <sparseX i="508" alpha="-436.10715315165151651" sparseCutoff="1.00000000000000000"/>
      <sparseX i="509" alpha="-212.56868210026286192" sparseCutoff="1.00000000000000000"/>
      <sparseX i="510" alpha="-1243.10583661465648220" sparseCutoff="1.00000000000000000"/>
      <sparseX i="511" alpha="-871.83444590605347457" sparseCutoff="1.00000000000000000"/>
      <sparseX i="512" alpha="-23.12718685692665943" sparseCutoff="1.00000000000000000"/>
      <sparseX i="513" alpha="7.17152960983050747" sparseCutoff="1.00000000000000000"/>
      <sparseX i="514" alpha="-41.69095112348668408" sparseCutoff="1.00000000000000000"/>
      <sparseX i="515" alpha="-47.28728334491817265" sparseCutoff="1.00000000000000000"/>
      <sparseX i="516" alpha="-0.63800249142758225" sparseCutoff="1.00000000000000000"/>
      <sparseX i="517" alpha="194.26077326442177196" sparseCutoff="1.00000000000000000"/>
      <sparseX i="518" alpha="-124.98681695899206545" sparseCutoff="1.00000000000000000"/>
      <sparseX i="519" alpha="-47.68848773677828490" sparseCutoff="1.00000000000000000"/>
      <sparseX i="520" alpha="-27.17334806911017253" sparseCutoff="1.00000000000000000"/>
      <sparseX i="521" alpha="106.52962490085221248" sparseCutoff="1.00000000000000000"/>
      <sparseX i="522" alpha="100.96656013452289358" sparseCutoff="1.00000000000000000"/>
      <sparseX i="523" alpha="117.59700938607727494" sparseCutoff="1.00000000000000000"/>
      <sparseX i="524" alpha="87.98341275437844899" sparseCutoff="1.00000000000000000"/>
      <sparseX i="525" alpha="40.67509300565831865" sparseCutoff="1.00000000000000000"/>
      <sparseX i="526" alpha="62.39087750240686603" sparseCutoff="1.00000000000000000"/>
      <sparseX i="527" alpha="95.96727921007226314" sparseCutoff="1.00000000000000000"/>
      <sparseX i="528" alpha="163.17079400261198430" sparseCutoff="1.00000000000000000"/>
      <sparseX i="529" alpha="171.97688943407331408" sparseCutoff="1.00000000000000000"/>
      <sparseX i="530" alpha="9.76753721527011187" sparseCutoff="1.00000000000000000"/>
      <sparseX i="531" alpha="16.30378505468710060" sparseCutoff="1.00000000000000000"/>
      <sparseX i="532" alpha="-2.30741281446470170" sparseCutoff="1.00000000000000000"/>
      <sparseX i="533" alpha="533.21871979458660462" sparseCutoff="1.00000000000000000"/>
      <sparseX i="534" alpha="560.94651711931214777" sparseCutoff="1.00000000000000000"/>
      <sparseX i="535" alpha="-1067.66528716817560962" sparseCutoff="1.00000000000000000"/>
      <sparseX i="536" alpha="-1807.72321716198894137" sparseCutoff="1.00000000000000000"/>
      <sparseX i="537" alpha="597.13164164214185803" sparseCutoff="1.00000000000000000"/>
      <sparseX i="538" alpha="556.76253006955062119" sparseCutoff="1.00000000000000000"/>
      <sparseX i="539" alpha="298.76627409858087958" sparseCutoff="1.00000000000000000"/>
      <sparseX i="540" alpha="-302.97496888448768004" sparseCutoff="1.00000000000000000"/>
      <sparseX i="541" alpha="268.70915179082737723" sparseCutoff="1.00000000000000000"/>
      <sparseX i="542" alpha="-32.71255141551152690" sparseCutoff="1.00000000000000000"/>
      <sparseX i="543" alpha="341.81368941646525172" sparseCutoff="1.00000000000000000"/>
      <sparseX i="544" alpha="81.54769888325428440" sparseCutoff="1.00000000000000000"/>
      <sparseX i="545" alpha="565.30467503778641003" sparseCutoff="1.00000000000000000"/>
      <sparseX i="546" alpha="55.53934852584544757" sparseCutoff="1.00000000000000000"/>
      <sparseX i="547" alpha="125.69410959374025083" sparseCutoff="1.00000000000000000"/>
      <sparseX i="548" alpha="507.72437190110105121" sparseCutoff="1.00000000000000000"/>
      <sparseX i="549" alpha="494.96392085155565610" sparseCutoff="1.00000000000000000"/>
      <sparseX i="550" alpha="149.72625065514540665" sparseCutoff="1.00000000000000000"/>
      <sparseX i="551" alpha="65.21078818976759806" sparseCutoff="1.00000000000000000"/>
      <sparseX i="552" alpha="65.21078818977056812" sparseCutoff="1.00000000000000000"/>
      <sparseX i="553" alpha="65.25364443968238959" sparseCutoff="1.00000000000000000"/>
      <sparseX i="554" alpha="65.25364441098419377" sparseCutoff="1.00000000000000000"/>
      <sparseX i="555" alpha="64.61753396546377815" sparseCutoff="1.00000000000000000"/>
      <sparseX i="556" alpha="64.61753396546308181" sparseCutoff="1.00000000000000000"/>
      <sparseX i="557" alpha="64.61732040981155478" sparseCutoff="1.00000000000000000"/>
      <sparseX i="558" alpha="64.61732039488300927" sparseCutoff="1.00000000000000000"/>
      <sparseX i="559" alpha="67.22723266972148792" sparseCutoff="1.00000000000000000"/>
      <sparseX i="560" alpha="67.22723266972241163" sparseCutoff="1.00000000000000000"/>
      <sparseX i="561" alpha="68.08123842270732951" sparseCutoff="1.00000000000000000"/>
      <sparseX i="562" alpha="45.06428176420195086" sparseCutoff="1.00000000000000000"/>
      <sparseX i="563" alpha="45.06428177065347995" sparseCutoff="1.00000000000000000"/>
      <sparseX i="564" alpha="58.11606875075547407" sparseCutoff="1.00000000000000000"/>
      <sparseX i="565" alpha="58.11606861870932761" sparseCutoff="1.00000000000000000"/>
      <sparseX i="566" alpha="51.54635227710622303" sparseCutoff="1.00000000000000000"/>
      <sparseX i="567" alpha="51.54635227910926432" sparseCutoff="1.00000000000000000"/>
      <sparseX i="568" alpha="18.03610896081066173" sparseCutoff="1.00000000000000000"/>
      <sparseX i="569" alpha="-1.25426706488272455" sparseCutoff="1.00000000000000000"/>
      <sparseX i="570" alpha="-1.25426706488247097" sparseCutoff="1.00000000000000000"/>
      <sparseX i="571" alpha="-33.18130118390173067" sparseCutoff="1.00000000000000000"/>
      <sparseX i="572" alpha="-33.18130118389988326" sparseCutoff="1.00000000000000000"/>
      <sparseX i="573" alpha="-133.23805317742790066" sparseCutoff="1.00000000000000000"/>
      <sparseX i="574" alpha="-133.23805315509360980" sparseCutoff="1.00000000000000000"/>
      <sparseX i="575" alpha="-100.57617651348856214" sparseCutoff="1.00000000000000000"/>
      <sparseX i="576" alpha="-100.57617651350987842" sparseCutoff="1.00000000000000000"/>
      <sparseX i="577" alpha="-360.70913061910459874" sparseCutoff="1.00000000000000000"/>
      <sparseX i="578" alpha="-360.70913062098503588" sparseCutoff="1.00000000000000000"/>
      <sparseX i="579" alpha="-8.57743181147240641" sparseCutoff="1.00000000000000000"/>
      <sparseX i="580" alpha="-39.73157966451535827" sparseCutoff="1.00000000000000000"/>
      <sparseX i="581" alpha="-110.11185888666747701" sparseCutoff="1.00000000000000000"/>
      <sparseX i="582" alpha="-114.00265607806731794" sparseCutoff="1.00000000000000000"/>
      <sparseX i="583" alpha="-114.00265605567116722" sparseCutoff="1.00000000000000000"/>
      <sparseX i="584" alpha="201.68676332523145334" sparseCutoff="1.00000000000000000"/>
      <sparseX i="585" alpha="201.68676369264898085" sparseCutoff="1.00000000000000000"/>
      <sparseX i="586" alpha="306.64705601875243701" sparseCutoff="1.00000000000000000"/>
      <sparseX i="587" alpha="306.64705601875778029" sparseCutoff="1.00000000000000000"/>
      <sparseX i="588" alpha="284.49494321916665740" sparseCutoff="1.00000000000000000"/>
      <sparseX i="589" alpha="294.77213356112929432" sparseCutoff="1.00000000000000000"/>
      <sparseX i="590" alpha="294.77213362173534961" sparseCutoff="1.00000000000000000"/>
      <sparseX i="591" alpha="272.90969704117105721" sparseCutoff="1.00000000000000000"/>
      <sparseX i="592" alpha="272.90969704117105721" sparseCutoff="1.00000000000000000"/>
      <sparseX i="593" alpha="275.91271016240335712" sparseCutoff="1.00000000000000000"/>
      <sparseX i="594" alpha="275.91271021889980375" sparseCutoff="1.00000000000000000"/>
      <sparseX i="595" alpha="-127.22918359022378354" sparseCutoff="1.00000000000000000"/>
      <sparseX i="596" alpha="-127.22918359021771550" sparseCutoff="1.00000000000000000"/>
      <sparseX i="597" alpha="120.72363219611673912" sparseCutoff="1.00000000000000000"/>
      <sparseX i="598" alpha="120.72363220172849196" sparseCutoff="1.00000000000000000"/>
      <sparseX i="599" alpha="25.26675449023572639" sparseCutoff="1.00000000000000000"/>
      <sparseX i="600" alpha="25.26675449024947895" sparseCutoff="1.00000000000000000"/>
      <sparseX i="601" alpha="184.80203725824122785" sparseCutoff="1.00000000000000000"/>
      <sparseX i="602" alpha="-274.67698154820823220" sparseCutoff="1.00000000000000000"/>
      <sparseX i="603" alpha="-274.67698164170991504" sparseCutoff="1.00000000000000000"/>
      <sparseX i="604" alpha="-842.27798311541675957" sparseCutoff="1.00000000000000000"/>
      <sparseX i="605" alpha="-842.27798326711308619" sparseCutoff="1.00000000000000000"/>
      <sparseX i="606" alpha="614.21987631602337387" sparseCutoff="1.00000000000000000"/>
      <sparseX i="607" alpha="253.64645305436201284" sparseCutoff="1.00000000000000000"/>
      <sparseX i="608" alpha="3.36969903943106663" sparseCutoff="1.00000000000000000"/>
      <sparseX i="609" alpha="-295.99815746884638656" sparseCutoff="1.00000000000000000"/>
      <sparseX i="610" alpha="-295.99815746883899692" sparseCutoff="1.00000000000000000"/>
      <sparseX i="611" alpha="-595.99861369858786020" sparseCutoff="1.00000000000000000"/>
      <sparseX i="612" alpha="-94.62122793243656815" sparseCutoff="1.00000000000000000"/>
      <sparseX i="613" alpha="-94.62122781147414230" sparseCutoff="1.00000000000000000"/>
      <sparseX i="614" alpha="-142.58906231938982501" sparseCutoff="1.00000000000000000"/>
      <sparseX i="615" alpha="-142.58906233156133680" sparseCutoff="1.00000000000000000"/>
      <sparseX i="616" alpha="-109.70760765295892725" sparseCutoff="1.00000000000000000"/>
      <sparseX i="617" alpha="97.30182119187229262" sparseCutoff="1.00000000000000000"/>
      <sparseX i="618" alpha="-365.74685365514801560" sparseCutoff="1.00000000000000000"/>
      <sparseX i="619" alpha="49.85213948128470207" sparseCutoff="1.00000000000000000"/>
      <sparseX i="620" alpha="-521.50858977755410706" sparseCutoff="1.00000000000000000"/>
      <sparseX i="621" alpha="-1846.82519599294664658" sparseCutoff="1.00000000000000000"/>
      <sparseX i="622" alpha="-397.72855069325134991" sparseCutoff="1.00000000000000000"/>
      <sparseX i="623" alpha="-785.16961108919963408" sparseCutoff="1.00000000000000000"/>
      <sparseX i="624" alpha="-367.20302130974147303" sparseCutoff="1.00000000000000000"/>
      <sparseX i="625" alpha="-473.38733104142818320" sparseCutoff="1.00000000000000000"/>
      <sparseX i="626" alpha="-465.67892520276797086" sparseCutoff="1.00000000000000000"/>
      <sparseX i="627" alpha="-562.13443292706347165" sparseCutoff="1.00000000000000000"/>
      <sparseX i="628" alpha="-117.04069019207410918" sparseCutoff="1.00000000000000000"/>
      <sparseX i="629" alpha="82.93358403507876631" sparseCutoff="1.00000000000000000"/>
      <sparseX i="630" alpha="53.14708164216910546" sparseCutoff="1.00000000000000000"/>
      <sparseX i="631" alpha="187.90455157122175933" sparseCutoff="1.00000000000000000"/>
      <sparseX i="632" alpha="832.91167837545344810" sparseCutoff="1.00000000000000000"/>
      <sparseX i="633" alpha="705.53201810110169845" sparseCutoff="1.00000000000000000"/>
      <sparseX i="634" alpha="697.06024194853489462" sparseCutoff="1.00000000000000000"/>
      <sparseX i="635" alpha="-118.54241684930831013" sparseCutoff="1.00000000000000000"/>
      <sparseX i="636" alpha="671.63311588892065629" sparseCutoff="1.00000000000000000"/>
      <sparseX i="637" alpha="145.76717240642670959" sparseCutoff="1.00000000000000000"/>
      <sparseX i="638" alpha="180.28004758589042922" sparseCutoff="1.00000000000000000"/>
      <sparseX i="639" alpha="61.56208655797575346" sparseCutoff="1.00000000000000000"/>
      <sparseX i="640" alpha="-541.22315908333951029" sparseCutoff="1.00000000000000000"/>
      <sparseX i="641" alpha="-131.51866224401899785" sparseCutoff="1.00000000000000000"/>
      <sparseX i="642" alpha="-146.06369519242639399" sparseCutoff="1.00000000000000000"/>
      <sparseX i="643" alpha="-74.65361872401487631" sparseCutoff="1.00000000000000000"/>
      <sparseX i="644" alpha="193.47134870243843352" sparseCutoff="1.00000000000000000"/>
      <sparseX i="645" alpha="-198.57074668327987865" sparseCutoff="1.00000000000000000"/>
      <sparseX i="646" alpha="-194.26909659427951738" sparseCutoff="1.00000000000000000"/>
      <sparseX i="647" alpha="-178.75690227372129470" sparseCutoff="1.00000000000000000"/>
      <sparseX i="648" alpha="-173.96972463939025033" sparseCutoff="1.00000000000000000"/>
      <sparseX i="649" alpha="-145.33665748662284045" sparseCutoff="1.00000000000000000"/>
      <sparseX i="650" alpha="28.76851313731914317" sparseCutoff="1.00000000000000000"/>
      <sparseX i="651" alpha="-90.55363124176763279" sparseCutoff="1.00000000000000000"/>
      <sparseX i="652" alpha="-117.42112658411761572" sparseCutoff="1.00000000000000000"/>
      <sparseX i="653" alpha="-106.99404713454245552" sparseCutoff="1.00000000000000000"/>
      <sparseX i="654" alpha="-104.95611585216182959" sparseCutoff="1.00000000000000000"/>
      <sparseX i="655" alpha="-75.80351501831536609" sparseCutoff="1.00000000000000000"/>
      <sparseX i="656" alpha="-91.09681220129466794" sparseCutoff="1.00000000000000000"/>
      <sparseX i="657" alpha="93.14680269460147599" sparseCutoff="1.00000000000000000"/>
      <sparseX i="658" alpha="125.21592920472299681" sparseCutoff="1.00000000000000000"/>
      <sparseX i="659" alpha="-130.46085351581081113" sparseCutoff="1.00000000000000000"/>
      <sparseX i="660" alpha="-167.87827598729555234" sparseCutoff="1.00000000000000000"/>
      <sparseX i="661" alpha="-178.32429061711320628" sparseCutoff="1.00000000000000000"/>
      <sparseX i="662" alpha="-160.55953546696628109" sparseCutoff="1.00000000000000000"/>
      <sparseX i="663" alpha="-263.28839224782649353" sparseCutoff="1.00000000000000000"/>
      <sparseX i="664" alpha="-262.84223260461146765" sparseCutoff="1.00000000000000000"/>
      <sparseX i="665" alpha="408.79680861758481569" sparseCutoff="1.00000000000000000"/>
      <sparseX i="666" alpha="449.80832052889485340" sparseCutoff="1.00000000000000000"/>
      <sparseX i="667" alpha="436.47395171865576913" sparseCutoff="1.00000000000000000"/>
      <sparseX i="668" alpha="15.87533318618395661" sparseCutoff="1.00000000000000000"/>
      <sparseX i="669" alpha="98.50294296822725926" sparseCutoff="1.00000000000000000"/>
      <sparseX i="670" alpha="66.50751505974756128" sparseCutoff="1.00000000000000000"/>
      <sparseX i="671" alpha="66.07666096607538009" sparseCutoff="1.00000000000000000"/>
      <sparseX i="672" alpha="78.52992049718982059" sparseCutoff="1.00000000000000000"/>
      <sparseX i="673" alpha="91.18288807482450409" sparseCutoff="1.00000000000000000"/>
      <sparseX i="674" alpha="38.56560964248092205" sparseCutoff="1.00000000000000000"/>
      <sparseX i="675" alpha="165.76732734962891413" sparseCutoff="1.00000000000000000"/>
      <sparseX i="676" alpha="91.02222026706759550" sparseCutoff="1.00000000000000000"/>
      <sparseX i="677" alpha="232.63828810675286718" sparseCutoff="1.00000000000000000"/>
      <sparseX i="678" alpha="245.31833171393370208" sparseCutoff="1.00000000000000000"/>
      <sparseX i="679" alpha="-158.36917774521299407" sparseCutoff="1.00000000000000000"/>
      <sparseX i="680" alpha="-49.64664649486393699" sparseCutoff="1.00000000000000000"/>
      <sparseX i="681" alpha="-160.71932218099945544" sparseCutoff="1.00000000000000000"/>
      <sparseX i="682" alpha="-48.43798743113093508" sparseCutoff="1.00000000000000000"/>
      <sparseX i="683" alpha="-13.41458086066216282" sparseCutoff="1.00000000000000000"/>
      <sparseX i="684" alpha="-9.35375598499466498" sparseCutoff="1.00000000000000000"/>
      <sparseX i="685" alpha="0.22498773382805193" sparseCutoff="1.00000000000000000"/>
      <sparseX i="686" alpha="-24.97189747323711018" sparseCutoff="1.00000000000000000"/>
      <sparseX i="687" alpha="42.80704367498477581" sparseCutoff="1.00000000000000000"/>
      <sparseX i="688" alpha="179.83963679237325550" sparseCutoff="1.00000000000000000"/>
      <sparseX i="689" alpha="-38.28199996566361563" sparseCutoff="1.00000000000000000"/>
      <sparseX i="690" alpha="223.71243170587570148" sparseCutoff="1.00000000000000000"/>
      <sparseX i="691" alpha="-207.07531023081526200" sparseCutoff="1.00000000000000000"/>
      <sparseX i="692" alpha="-187.04112582596513903" sparseCutoff="1.00000000000000000"/>
      <sparseX i="693" alpha="-120.11693153339264484" sparseCutoff="1.00000000000000000"/>
      <sparseX i="694" alpha="-93.04980875515985872" sparseCutoff="1.00000000000000000"/>
      <sparseX i="695" alpha="-69.19243948260928789" sparseCutoff="1.00000000000000000"/>
      <sparseX i="696" alpha="102.68579022185984684" sparseCutoff="1.00000000000000000"/>
      <sparseX i="697" alpha="413.82406486611478158" sparseCutoff="1.00000000000000000"/>
      <sparseX i="698" alpha="-250.14302640660932298" sparseCutoff="1.00000000000000000"/>
      <sparseX i="699" alpha="-467.25006288718378755" sparseCutoff="1.00000000000000000"/>
      <sparseX i="700" alpha="-600.62068205057676096" sparseCutoff="1.00000000000000000"/>
      <sparseX i="701" alpha="-512.94147277336605839" sparseCutoff="1.00000000000000000"/>
      <sparseX i="702" alpha="95.85843261307286411" sparseCutoff="1.00000000000000000"/>
      <sparseX i="703" alpha="154.83027860408398624" sparseCutoff="1.00000000000000000"/>
      <sparseX i="704" alpha="59.03736389989275324" sparseCutoff="1.00000000000000000"/>
      <sparseX i="705" alpha="44.43594113607779406" sparseCutoff="1.00000000000000000"/>
      <sparseX i="706" alpha="-332.70282223564061042" sparseCutoff="1.00000000000000000"/>
      <sparseX i="707" alpha="-341.75175649743914619" sparseCutoff="1.00000000000000000"/>
      <sparseX i="708" alpha="-388.41978943318781603" sparseCutoff="1.00000000000000000"/>
      <sparseX i="709" alpha="-312.71009886251113130" sparseCutoff="1.00000000000000000"/>
      <sparseX i="710" alpha="-236.87194780403928007" sparseCutoff="1.00000000000000000"/>
      <sparseX i="711" alpha="-192.93005774909013894" sparseCutoff="1.00000000000000000"/>
      <sparseX i="712" alpha="-104.62009737419013788" sparseCutoff="1.00000000000000000"/>
      <sparseX i="713" alpha="-110.98551038281495096" sparseCutoff="1.00000000000000000"/>
      <sparseX i="714" alpha="-61.34023990540683258" sparseCutoff="1.00000000000000000"/>
      <sparseX i="715" alpha="-55.68654730837099009" sparseCutoff="1.00000000000000000"/>
      <sparseX i="716" alpha="-39.36526372740311785" sparseCutoff="1.00000000000000000"/>
      <sparseX i="717" alpha="197.32387860974998262" sparseCutoff="1.00000000000000000"/>
      <sparseX i="718" alpha="-284.62383083400010264" sparseCutoff="1.00000000000000000"/>
      <sparseX i="719" alpha="-238.51802060143216977" sparseCutoff="1.00000000000000000"/>
      <sparseX i="720" alpha="-205.41268698766552347" sparseCutoff="1.00000000000000000"/>
      <sparseX i="721" alpha="-181.36083816786256762" sparseCutoff="1.00000000000000000"/>
      <sparseX i="722" alpha="-147.43834802233973846" sparseCutoff="1.00000000000000000"/>
      <sparseX i="723" alpha="-181.50718810129228586" sparseCutoff="1.00000000000000000"/>
      <sparseX i="724" alpha="-391.69002070231027801" sparseCutoff="1.00000000000000000"/>
      <sparseX i="725" alpha="-12.45459689762321354" sparseCutoff="1.00000000000000000"/>
      <sparseX i="726" alpha="113.23882107537114905" sparseCutoff="1.00000000000000000"/>
      <sparseX i="727" alpha="138.18727254791201631" sparseCutoff="1.00000000000000000"/>
      <sparseX i="728" alpha="192.20667773309168069" sparseCutoff="1.00000000000000000"/>
      <sparseX i="729" alpha="8.34005026637787239" sparseCutoff="1.00000000000000000"/>
      <sparseX i="730" alpha="-23.72624808469824842" sparseCutoff="1.00000000000000000"/>
      <sparseX i="731" alpha="-83.22020936859171059" sparseCutoff="1.00000000000000000"/>
      <sparseX i="732" alpha="-85.20700492501570977" sparseCutoff="1.00000000000000000"/>
      <sparseX i="733" alpha="323.56844090865786256" sparseCutoff="1.00000000000000000"/>
      <sparseX i="734" alpha="322.89225245288184851" sparseCutoff="1.00000000000000000"/>
      <sparseX i="735" alpha="340.79298906410753034" sparseCutoff="1.00000000000000000"/>
      <sparseX i="736" alpha="228.24278905853853416" sparseCutoff="1.00000000000000000"/>
      <sparseX i="737" alpha="-508.22430098950633237" sparseCutoff="1.00000000000000000"/>
      <sparseX i="738" alpha="-296.81820061949582623" sparseCutoff="1.00000000000000000"/>
      <sparseX i="739" alpha="-589.54303194178362446" sparseCutoff="1.00000000000000000"/>
      <sparseX i="740" alpha="-540.18480346863736941" sparseCutoff="1.00000000000000000"/>
      <sparseX i="741" alpha="-720.82092343982765215" sparseCutoff="1.00000000000000000"/>
      <sparseX i="742" alpha="756.70313327607027531" sparseCutoff="1.00000000000000000"/>
      <sparseX i="743" alpha="1.00043288952885656" sparseCutoff="1.00000000000000000"/>
      <sparseX i="744" alpha="-8.92748874368562895" sparseCutoff="1.00000000000000000"/>
      <sparseX i="745" alpha="49.75654387202603601" sparseCutoff="1.00000000000000000"/>
      <sparseX i="746" alpha="235.84160308571003384" sparseCutoff="1.00000000000000000"/>
      <sparseX i="747" alpha="125.04026340197556522" sparseCutoff="1.00000000000000000"/>
      <sparseX i="748" alpha="-275.15839674471834542" sparseCutoff="1.00000000000000000"/>
      <sparseX i="749" alpha="-114.53227511859755339" sparseCutoff="1.00000000000000000"/>
      <sparseX i="750" alpha="-19.13039563301099832" sparseCutoff="1.00000000000000000"/>
      <sparseX i="751" alpha="292.00664313755288504" sparseCutoff="1.00000000000000000"/>
      <sparseX i="752" alpha="222.21829160772509226" sparseCutoff="1.00000000000000000"/>
      <sparseX i="753" alpha="-260.92533297513404023" sparseCutoff="1.00000000000000000"/>
      <sparseX i="754" alpha="115.52851733943857937" sparseCutoff="1.00000000000000000"/>
      <sparseX i="755" alpha="43.53967960340714427" sparseCutoff="1.00000000000000000"/>
      <sparseX i="756" alpha="29.10907792894247947" sparseCutoff="1.00000000000000000"/>
      <sparseX i="757" alpha="-563.35902437219306194" sparseCutoff="1.00000000000000000"/>
      <sparseX i="758" alpha="-993.40853530877723188" sparseCutoff="1.00000000000000000"/>
      <sparseX i="759" alpha="-663.36624562509723546" sparseCutoff="1.00000000000000000"/>
      <sparseX i="760" alpha="-223.83965964947572047" sparseCutoff="1.00000000000000000"/>
      <sparseX i="761" alpha="-1882.09947900075553662" sparseCutoff="1.00000000000000000"/>
      <sparseX i="762" alpha="-208.57984675518355289" sparseCutoff="1.00000000000000000"/>
      <sparseX i="763" alpha="-501.75501826558001994" sparseCutoff="1.00000000000000000"/>
      <sparseX i="764" alpha="-799.27874740069603376" sparseCutoff="1.00000000000000000"/>
      <sparseX i="765" alpha="-548.00546073651685219" sparseCutoff="1.00000000000000000"/>
      <sparseX i="766" alpha="108.00459200010482164" sparseCutoff="1.00000000000000000"/>
      <sparseX i="767" alpha="257.60650357073859595" sparseCutoff="1.00000000000000000"/>
      <sparseX i="768" alpha="235.77359456213369526" sparseCutoff="1.00000000000000000"/>
      <sparseX i="769" alpha="500.50518609566114492" sparseCutoff="1.00000000000000000"/>
      <sparseX i="770" alpha="337.50568812328538115" sparseCutoff="1.00000000000000000"/>
      <sparseX i="771" alpha="-1080.44079251722246227" sparseCutoff="1.00000000000000000"/>
      <sparseX i="772" alpha="-736.42178612547547800" sparseCutoff="1.00000000000000000"/>
      <sparseX i="773" alpha="-775.10320344754370581" sparseCutoff="1.00000000000000000"/>
      <sparseX i="774" alpha="-222.28478967611277994" sparseCutoff="1.00000000000000000"/>
      <sparseX i="775" alpha="-90.44135725049629571" sparseCutoff="1.00000000000000000"/>
      <sparseX i="776" alpha="-250.32977763483049216" sparseCutoff="1.00000000000000000"/>
      <sparseX i="777" alpha="523.99991599942893572" sparseCutoff="1.00000000000000000"/>
      <sparseX i="778" alpha="15.94206814773874115" sparseCutoff="1.00000000000000000"/>
      <sparseX i="779" alpha="15.97689402863621311" sparseCutoff="1.00000000000000000"/>
      <sparseX i="780" alpha="29.78343898020588654" sparseCutoff="1.00000000000000000"/>
      <sparseX i="781" alpha="44.41503342560164924" sparseCutoff="1.00000000000000000"/>
      <sparseX i="782" alpha="46.02426846440508257" sparseCutoff="1.00000000000000000"/>
      <sparseX i="783" alpha="0.77293718030314762" sparseCutoff="1.00000000000000000"/>
      <sparseX i="784" alpha="3.93110714732181865" sparseCutoff="1.00000000000000000"/>
      <sparseX i="785" alpha="-87.40307654755640954" sparseCutoff="1.00000000000000000"/>
      <sparseX i="786" alpha="-15.62633851834057452" sparseCutoff="1.00000000000000000"/>
      <sparseX i="787" alpha="-37.77757751488741889" sparseCutoff="1.00000000000000000"/>
      <sparseX i="788" alpha="65.15449994500609421" sparseCutoff="1.00000000000000000"/>
      <sparseX i="789" alpha="66.32808936359964491" sparseCutoff="1.00000000000000000"/>
      <sparseX i="790" alpha="98.04551419785255462" sparseCutoff="1.00000000000000000"/>
      <sparseX i="791" alpha="112.51061314761814458" sparseCutoff="1.00000000000000000"/>
      <sparseX i="792" alpha="206.45639268767826024" sparseCutoff="1.00000000000000000"/>
      <sparseX i="793" alpha="163.26726948257100958" sparseCutoff="1.00000000000000000"/>
      <sparseX i="794" alpha="110.46547599402246931" sparseCutoff="1.00000000000000000"/>
      <sparseX i="795" alpha="97.05860694175849801" sparseCutoff="1.00000000000000000"/>
      <sparseX i="796" alpha="4.15579760464545966" sparseCutoff="1.00000000000000000"/>
      <sparseX i="797" alpha="-3.25859467745541753" sparseCutoff="1.00000000000000000"/>
      <sparseX i="798" alpha="82.03185364549058534" sparseCutoff="1.00000000000000000"/>
      <sparseX i="799" alpha="34.82783394939995958" sparseCutoff="1.00000000000000000"/>
      <sparseX i="800" alpha="33.13657851936125098" sparseCutoff="1.00000000000000000"/>
      <sparseX i="801" alpha="-12.91092819904926614" sparseCutoff="1.00000000000000000"/>
      <sparseX i="802" alpha="0.46607121037758176" sparseCutoff="1.00000000000000000"/>
      <sparseX i="803" alpha="-1.98885822645967880" sparseCutoff="1.00000000000000000"/>
      <sparseX i="804" alpha="-33.81141628837436031" sparseCutoff="1.00000000000000000"/>
      <sparseX i="805" alpha="-55.17574599107513222" sparseCutoff="1.00000000000000000"/>
      <sparseX i="806" alpha="-57.63678374641349222" sparseCutoff="1.00000000000000000"/>
      <sparseX i="807" alpha="-98.69129936456693031" sparseCutoff="1.00000000000000000"/>
      <sparseX i="808" alpha="-61.81729937684738019" sparseCutoff="1.00000000000000000"/>
      <sparseX i="809" alpha="-18.65746652038524545" sparseCutoff="1.00000000000000000"/>
      <sparseX i="810" alpha="-15.78572634364093297" sparseCutoff="1.00000000000000000"/>
      <sparseX i="811" alpha="-192.23707095089068275" sparseCutoff="1.00000000000000000"/>
      <sparseX i="812" alpha="-168.39508255924627633" sparseCutoff="1.00000000000000000"/>
      <sparseX i="813" alpha="6.63887068456691054" sparseCutoff="1.00000000000000000"/>
      <sparseX i="814" alpha="36.19612918384613920" sparseCutoff="1.00000000000000000"/>
      <sparseX i="815" alpha="370.02873812744576298" sparseCutoff="1.00000000000000000"/>
      <sparseX i="816" alpha="-219.98782278349600006" sparseCutoff="1.00000000000000000"/>
      <sparseX i="817" alpha="-220.13077751420510708" sparseCutoff="1.00000000000000000"/>
      <sparseX i="818" alpha="-245.32587609281679875" sparseCutoff="1.00000000000000000"/>
      <sparseX i="819" alpha="354.08225529235744489" sparseCutoff="1.00000000000000000"/>
      <sparseX i="820" alpha="42.66478538999526648" sparseCutoff="1.00000000000000000"/>
      <sparseX i="821" alpha="64.28277699746944052" sparseCutoff="1.00000000000000000"/>
      <sparseX i="822" alpha="-124.48990595088044131" sparseCutoff="1.00000000000000000"/>
      <sparseX i="823" alpha="-91.17730034608267431" sparseCutoff="1.00000000000000000"/>
      <sparseX i="824" alpha="-292.05299904874630101" sparseCutoff="1.00000000000000000"/>
      <sparseX i="825" alpha="-78.83754718406804329" sparseCutoff="1.00000000000000000"/>
      <sparseX i="826" alpha="-2522.28990199223699165" sparseCutoff="1.00000000000000000"/>
      <sparseX i="827" alpha="-1068.72730922656023722" sparseCutoff="1.00000000000000000"/>
      <sparseX i="828" alpha="-101.16291098345145372" sparseCutoff="1.00000000000000000"/>
      <sparseX i="829" alpha="-603.26329367551159066" sparseCutoff="1.00000000000000000"/>
      <sparseX i="830" alpha="980.92299408623125601" sparseCutoff="1.00000000000000000"/>
      <sparseX i="831" alpha="1176.58928275661355656" sparseCutoff="1.00000000000000000"/>
      <sparseX i="832" alpha="1494.29813346550645292" sparseCutoff="1.00000000000000000"/>
      <sparseX i="833" alpha="-731.41196655311239283" sparseCutoff="1.00000000000000000"/>
      <sparseX i="834" alpha="-627.76409602419175826" sparseCutoff="1.00000000000000000"/>
      <sparseX i="835" alpha="121.69227378759150326" sparseCutoff="1.00000000000000000"/>
      <sparseX i="836" alpha="203.10155940663563001" sparseCutoff="1.00000000000000000"/>
      <sparseX i="837" alpha="229.83082831926091671" sparseCutoff="1.00000000000000000"/>
      <sparseX i="838" alpha="-226.49574442829558052" sparseCutoff="1.00000000000000000"/>
      <sparseX i="839" alpha="-202.10183155272753197" sparseCutoff="1.00000000000000000"/>
      <sparseX i="840" alpha="-26.91473990759945423" sparseCutoff="1.00000000000000000"/>
      <sparseX i="841" alpha="313.58941546636208386" sparseCutoff="1.00000000000000000"/>
      <sparseX i="842" alpha="44.25746941226907438" sparseCutoff="1.00000000000000000"/>
      <sparseX i="843" alpha="-127.38606488175734910" sparseCutoff="1.00000000000000000"/>
      <sparseX i="844" alpha="-150.67156618886482988" sparseCutoff="1.00000000000000000"/>
      <sparseX i="845" alpha="382.29850251526175953" sparseCutoff="1.00000000000000000"/>
      <sparseX i="846" alpha="339.71632375737976872" sparseCutoff="1.00000000000000000"/>
      <sparseX i="847" alpha="99.14129702751492346" sparseCutoff="1.00000000000000000"/>
      <sparseX i="848" alpha="93.86522287241068341" sparseCutoff="1.00000000000000000"/>
      <sparseX i="849" alpha="205.24890584092520385" sparseCutoff="1.00000000000000000"/>
      <sparseX i="850" alpha="173.37060851137346162" sparseCutoff="1.00000000000000000"/>
      <sparseX i="851" alpha="85.93017149798691889" sparseCutoff="1.00000000000000000"/>
      <sparseX i="852" alpha="85.18436292192248516" sparseCutoff="1.00000000000000000"/>
      <sparseX i="853" alpha="-70.47586343140054055" sparseCutoff="1.00000000000000000"/>
      <sparseX i="854" alpha="34.90436531856529001" sparseCutoff="1.00000000000000000"/>
      <sparseX i="855" alpha="159.20800860830740930" sparseCutoff="1.00000000000000000"/>
      <sparseX i="856" alpha="166.19311840454892604" sparseCutoff="1.00000000000000000"/>
      <sparseX i="857" alpha="168.89660565512298263" sparseCutoff="1.00000000000000000"/>
      <sparseX i="858" alpha="94.26091383888166320" sparseCutoff="1.00000000000000000"/>
      <sparseX i="859" alpha="-22.19248217052049554" sparseCutoff="1.00000000000000000"/>
      <sparseX i="860" alpha="-8.40713012050452235" sparseCutoff="1.00000000000000000"/>
      <sparseX i="861" alpha="-17.41720850911820051" sparseCutoff="1.00000000000000000"/>
      <sparseX i="862" alpha="63.37255560127619702" sparseCutoff="1.00000000000000000"/>
      <sparseX i="863" alpha="-106.94406050697219257" sparseCutoff="1.00000000000000000"/>
      <sparseX i="864" alpha="-200.43020819128571475" sparseCutoff="1.00000000000000000"/>
      <sparseX i="865" alpha="-16.47653085165973152" sparseCutoff="1.00000000000000000"/>
      <sparseX i="866" alpha="-171.62331349844239980" sparseCutoff="1.00000000000000000"/>
      <sparseX i="867" alpha="1121.82249386408307146" sparseCutoff="1.00000000000000000"/>
      <sparseX i="868" alpha="254.15013107663287428" sparseCutoff="1.00000000000000000"/>
      <sparseX i="869" alpha="298.13074735202280863" sparseCutoff="1.00000000000000000"/>
      <sparseX i="870" alpha="219.11977924566048159" sparseCutoff="1.00000000000000000"/>
      <sparseX i="871" alpha="104.90296222707482343" sparseCutoff="1.00000000000000000"/>
      <sparseX i="872" alpha="150.08030307474970755" sparseCutoff="1.00000000000000000"/>
      <sparseX i="873" alpha="133.04667886606767979" sparseCutoff="1.00000000000000000"/>
      <sparseX i="874" alpha="-117.20497391973874812" sparseCutoff="1.00000000000000000"/>
      <sparseX i="875" alpha="-23.07824907545837334" sparseCutoff="1.00000000000000000"/>
      <sparseX i="876" alpha="109.03790617480655101" sparseCutoff="1.00000000000000000"/>
      <sparseX i="877" alpha="307.54444610048227560" sparseCutoff="1.00000000000000000"/>
      <sparseX i="878" alpha="173.49392428442450864" sparseCutoff="1.00000000000000000"/>
      <sparseX i="879" alpha="-559.46569796480036985" sparseCutoff="1.00000000000000000"/>
      <sparseX i="880" alpha="-709.25163785576683040" sparseCutoff="1.00000000000000000"/>
      <sparseX i="881" alpha="-788.59282642855259837" sparseCutoff="1.00000000000000000"/>
      <sparseX i="882" alpha="566.67091148687075020" sparseCutoff="1.00000000000000000"/>
      <sparseX i="883" alpha="317.64602777594723193" sparseCutoff="1.00000000000000000"/>
      <sparseX i="884" alpha="323.84460474255092777" sparseCutoff="1.00000000000000000"/>
      <sparseX i="885" alpha="65.26289049551851917" sparseCutoff="1.00000000000000000"/>
      <sparseX i="886" alpha="65.26289049551921551" sparseCutoff="1.00000000000000000"/>
      <sparseX i="887" alpha="65.26289049551672861" sparseCutoff="1.00000000000000000"/>
      <sparseX i="888" alpha="65.26289049552082133" sparseCutoff="1.00000000000000000"/>
      <sparseX i="889" alpha="65.26289047221654016" sparseCutoff="1.00000000000000000"/>
      <sparseX i="890" alpha="65.26289047221798967" sparseCutoff="1.00000000000000000"/>
      <sparseX i="891" alpha="65.26289047221575856" sparseCutoff="1.00000000000000000"/>
      <sparseX i="892" alpha="65.26289047221730755" sparseCutoff="1.00000000000000000"/>
      <sparseX i="893" alpha="-25.20484452117838359" sparseCutoff="1.00000000000000000"/>
      <sparseX i="894" alpha="-132.96532951107425902" sparseCutoff="1.00000000000000000"/>
      <sparseX i="895" alpha="2.42250250331085359" sparseCutoff="1.00000000000000000"/>
      <sparseX i="896" alpha="-5.16345399316593046" sparseCutoff="1.00000000000000000"/>
      <sparseX i="897" alpha="-50.79313162326501185" sparseCutoff="1.00000000000000000"/>
      <sparseX i="898" alpha="-35.67810775412958435" sparseCutoff="1.00000000000000000"/>
      <sparseX i="899" alpha="30.08718134638319341" sparseCutoff="1.00000000000000000"/>
      <sparseX i="900" alpha="36.38471767935984502" sparseCutoff="1.00000000000000000"/>
      <sparseX i="901" alpha="53.30349876794246455" sparseCutoff="1.00000000000000000"/>
      <sparseX i="902" alpha="51.35103749222103886" sparseCutoff="1.00000000000000000"/>
      <sparseX i="903" alpha="334.07470472124595062" sparseCutoff="1.00000000000000000"/>
      <sparseX i="904" alpha="141.19926008069427326" sparseCutoff="1.00000000000000000"/>
      <sparseX i="905" alpha="225.05141683850564505" sparseCutoff="1.00000000000000000"/>
      <sparseX i="906" alpha="-159.12882977820490282" sparseCutoff="1.00000000000000000"/>
      <sparseX i="907" alpha="-158.74555161052094832" sparseCutoff="1.00000000000000000"/>
      <sparseX i="908" alpha="-89.67571855075178178" sparseCutoff="1.00000000000000000"/>
      <sparseX i="909" alpha="-36.64168457169003545" sparseCutoff="1.00000000000000000"/>
      <sparseX i="910" alpha="-35.50496584996925975" sparseCutoff="1.00000000000000000"/>
      <sparseX i="911" alpha="-14.84164397048895978" sparseCutoff="1.00000000000000000"/>
      <sparseX i="912" alpha="62.28165345868787028" sparseCutoff="1.00000000000000000"/>
      <sparseX i="913" alpha="264.40539758991155850" sparseCutoff="1.00000000000000000"/>
      <sparseX i="914" alpha="316.22610610642260554" sparseCutoff="1.00000000000000000"/>
      <sparseX i="915" alpha="101.62023959667678241" sparseCutoff="1.00000000000000000"/>
      <sparseX i="916" alpha="400.22123100392866490" sparseCutoff="1.00000000000000000"/>
      <sparseX i="917" alpha="233.65564200430884512" sparseCutoff="1.00000000000000000"/>
      <sparseX i="918" alpha="-181.40178062530824832" sparseCutoff="1.00000000000000000"/>
      <sparseX i="919" alpha="-164.99443770846221469" sparseCutoff="1.00000000000000000"/>
      <sparseX i="920" alpha="-7.56106931267602000" sparseCutoff="1.00000000000000000"/>
      <sparseX i="921" alpha="183.91174738074695938" sparseCutoff="1.00000000000000000"/>
      <sparseX i="922" alpha="137.69489024100897723" sparseCutoff="1.00000000000000000"/>
      <sparseX i="923" alpha="67.13411387246948436" sparseCutoff="1.00000000000000000"/>
      <sparseX i="924" alpha="11.49281587418255235" sparseCutoff="1.00000000000000000"/>
      <sparseX i="925" alpha="-95.93786647609836393" sparseCutoff="1.00000000000000000"/>
      <sparseX i="926" alpha="-195.14049044910976249" sparseCutoff="1.00000000000000000"/>
      <sparseX i="927" alpha="-138.97554640404408133" sparseCutoff="1.00000000000000000"/>
      <sparseX i="928" alpha="-49.19604226095302835" sparseCutoff="1.00000000000000000"/>
      <sparseX i="929" alpha="-328.47919852682144892" sparseCutoff="1.00000000000000000"/>
      <sparseX i="930" alpha="-302.03118800928064047" sparseCutoff="1.00000000000000000"/>
      <sparseX i="931" alpha="15.45985931559563298" sparseCutoff="1.00000000000000000"/>
      <sparseX i="932" alpha="-197.58228503202676052" sparseCutoff="1.00000000000000000"/>
      <sparseX i="933" alpha="-188.89551358036558781" sparseCutoff="1.00000000000000000"/>
      <sparseX i="934" alpha="-566.79990344865427687" sparseCutoff="1.00000000000000000"/>
      <sparseX i="935" alpha="210.70899035921218001" sparseCutoff="1.00000000000000000"/>
      <sparseX i="936" alpha="171.40573198996753490" sparseCutoff="1.00000000000000000"/>
      <sparseX i="937" alpha="-2029.33597271440703480" sparseCutoff="1.00000000000000000"/>
      <sparseX i="938" alpha="-1048.37997219770227275" sparseCutoff="1.00000000000000000"/>
      <sparseX i="939" alpha="-1517.14168790121175334" sparseCutoff="1.00000000000000000"/>
      <sparseX i="940" alpha="-514.05412585025192129" sparseCutoff="1.00000000000000000"/>
      <sparseX i="941" alpha="-476.89118383824029479" sparseCutoff="1.00000000000000000"/>
      <sparseX i="942" alpha="-151.77788003202596201" sparseCutoff="1.00000000000000000"/>
      <sparseX i="943" alpha="378.03163080163631093" sparseCutoff="1.00000000000000000"/>
      <sparseX i="944" alpha="534.20940769334890774" sparseCutoff="1.00000000000000000"/>
      <sparseX i="945" alpha="184.53710379244361661" sparseCutoff="1.00000000000000000"/>
      <sparseX i="946" alpha="1233.49717031749605667" sparseCutoff="1.00000000000000000"/>
      <sparseX i="947" alpha="129.60721327570499284" sparseCutoff="1.00000000000000000"/>
      <sparseX i="948" alpha="162.62840265266152073" sparseCutoff="1.00000000000000000"/>
      <sparseX i="949" alpha="76.89237287030968560" sparseCutoff="1.00000000000000000"/>
      <sparseX i="950" alpha="27.44438525093356418" sparseCutoff="1.00000000000000000"/>
      <sparseX i="951" alpha="144.01215264441924546" sparseCutoff="1.00000000000000000"/>
      <sparseX i="952" alpha="40.88125944532308864" sparseCutoff="1.00000000000000000"/>
      <sparseX i="953" alpha="-510.05027096695476985" sparseCutoff="1.00000000000000000"/>
      <sparseX i="954" alpha="-482.16143729840905507" sparseCutoff="1.00000000000000000"/>
      <sparseX i="955" alpha="-517.88242057846605348" sparseCutoff="1.00000000000000000"/>
      <sparseX i="956" alpha="-31.73308598685948922" sparseCutoff="1.00000000000000000"/>
      <sparseX i="957" alpha="358.22989428038783899" sparseCutoff="1.00000000000000000"/>
      <sparseX i="958" alpha="153.20453836588188778" sparseCutoff="1.00000000000000000"/>
      <sparseX i="959" alpha="-149.43027973185533597" sparseCutoff="1.00000000000000000"/>
      <sparseX i="960" alpha="514.69284930657067889" sparseCutoff="1.00000000000000000"/>
      <sparseX i="961" alpha="601.01383987632834760" sparseCutoff="1.00000000000000000"/>
      <sparseX i="962" alpha="-238.71139690483988716" sparseCutoff="1.00000000000000000"/>
      <sparseX i="963" alpha="-305.31545741020602236" sparseCutoff="1.00000000000000000"/>
      <sparseX i="964" alpha="-240.17603784338203354" sparseCutoff="1.00000000000000000"/>
      <sparseX i="965" alpha="2298.46086506387655390" sparseCutoff="1.00000000000000000"/>
      <sparseX i="966" alpha="-616.72842931326727012" sparseCutoff="1.00000000000000000"/>
      <sparseX i="967" alpha="-457.32441353790801486" sparseCutoff="1.00000000000000000"/>
      <sparseX i="968" alpha="-632.19209460635897813" sparseCutoff="1.00000000000000000"/>
      <sparseX i="969" alpha="-470.04651356298040810" sparseCutoff="1.00000000000000000"/>
      <sparseX i="970" alpha="-228.18004483208466127" sparseCutoff="1.00000000000000000"/>
      <sparseX i="971" alpha="178.05340367121118561" sparseCutoff="1.00000000000000000"/>
      <sparseX i="972" alpha="-372.71174966761151381" sparseCutoff="1.00000000000000000"/>
      <sparseX i="973" alpha="-88.31718545185000835" sparseCutoff="1.00000000000000000"/>
      <sparseX i="974" alpha="-32.56641459372738723" sparseCutoff="1.00000000000000000"/>
      <sparseX i="975" alpha="64.70567085648811201" sparseCutoff="1.00000000000000000"/>
      <sparseX i="976" alpha="73.20970963738911053" sparseCutoff="1.00000000000000000"/>
      <sparseX i="977" alpha="85.09562446879871800" sparseCutoff="1.00000000000000000"/>
      <sparseX i="978" alpha="78.57948755039663524" sparseCutoff="1.00000000000000000"/>
      <sparseX i="979" alpha="-20.31163005791895770" sparseCutoff="1.00000000000000000"/>
      <sparseX i="980" alpha="2.48520526310479850" sparseCutoff="1.00000000000000000"/>
      <sparseX i="981" alpha="-54.68251223949847883" sparseCutoff="1.00000000000000000"/>
      <sparseX i="982" alpha="-259.48754723789767240" sparseCutoff="1.00000000000000000"/>
      <sparseX i="983" alpha="-258.27460875190917022" sparseCutoff="1.00000000000000000"/>
      <sparseX i="984" alpha="-367.13957663279728649" sparseCutoff="1.00000000000000000"/>
      <sparseX i="985" alpha="44.78792752596991988" sparseCutoff="1.00000000000000000"/>
      <sparseX i="986" alpha="-771.31952497490055976" sparseCutoff="1.00000000000000000"/>
      <sparseX i="987" alpha="-764.60181608453751778" sparseCutoff="1.00000000000000000"/>
      <sparseX i="988" alpha="-1285.55112251297009607" sparseCutoff="1.00000000000000000"/>
      <sparseX i="989" alpha="-1310.34471709538070172" sparseCutoff="1.00000000000000000"/>
      <sparseX i="990" alpha="-1116.37728488562856910" sparseCutoff="1.00000000000000000"/>
      <sparseX i="991" alpha="403.65887773045909626" sparseCutoff="1.00000000000000000"/>
      <sparseX i="992" alpha="-695.68448900934572521" sparseCutoff="1.00000000000000000"/>
      <sparseX i="993" alpha="215.83377431752967368" sparseCutoff="1.00000000000000000"/>
      <sparseX i="994" alpha="189.53415531597514132" sparseCutoff="1.00000000000000000"/>
      <sparseX i="995" alpha="197.45710433820892149" sparseCutoff="1.00000000000000000"/>
      <sparseX i="996" alpha="386.36478470224534476" sparseCutoff="1.00000000000000000"/>
      <sparseX i="997" alpha="251.88891459743226164" sparseCutoff="1.00000000000000000"/>
      <sparseX i="998" alpha="225.75121548860175835" sparseCutoff="1.00000000000000000"/>
      <sparseX i="999" alpha="-122.64318091470514105" sparseCutoff="1.00000000000000000"/>
      <sparseX i="1000" alpha="-342.57252844116896995" sparseCutoff="1.00000000000000000"/>
      <sparseX i="1001" alpha="-363.98011096162747435" sparseCutoff="1.00000000000000000"/>
      <sparseX i="1002" alpha="-388.84527493227761852" sparseCutoff="1.00000000000000000"/>
      <sparseX i="1003" alpha="-366.24912940810116879" sparseCutoff="1.00000000000000000"/>
      <sparseX i="1004" alpha="-382.91619582521400389" sparseCutoff="1.00000000000000000"/>
      <sparseX i="1005" alpha="-1083.43319241804442754" sparseCutoff="1.00000000000000000"/>
      <sparseX i="1006" alpha="-65.46867470893492680" sparseCutoff="1.00000000000000000"/>
      <sparseX i="1007" alpha="-163.02725304121150884" sparseCutoff="1.00000000000000000"/>
      <sparseX i="1008" alpha="-147.49297987325454073" sparseCutoff="1.00000000000000000"/>
      <sparseX i="1009" alpha="-70.50312095852697780" sparseCutoff="1.00000000000000000"/>
      <sparseX i="1010" alpha="8.81238535629648112" sparseCutoff="1.00000000000000000"/>
      <sparseX i="1011" alpha="13.57175304832703588" sparseCutoff="1.00000000000000000"/>
      <sparseX i="1012" alpha="234.91223882038778470" sparseCutoff="1.00000000000000000"/>
      <sparseX i="1013" alpha="329.05568748536285284" sparseCutoff="1.00000000000000000"/>
      <sparseX i="1014" alpha="454.46089052698755495" sparseCutoff="1.00000000000000000"/>
      <sparseX i="1015" alpha="440.77361468766093822" sparseCutoff="1.00000000000000000"/>
      <sparseX i="1016" alpha="579.95732771202153799" sparseCutoff="1.00000000000000000"/>
      <sparseX i="1017" alpha="-13.60408893809245079" sparseCutoff="1.00000000000000000"/>
      <sparseX i="1018" alpha="-634.16865481341278610" sparseCutoff="1.00000000000000000"/>
      <sparseX i="1019" alpha="-571.70988131973069812" sparseCutoff="1.00000000000000000"/>
      <sparseX i="1020" alpha="-571.09004508700991209" sparseCutoff="1.00000000000000000"/>
      <sparseX i="1021" alpha="-516.88135121619575330" sparseCutoff="1.00000000000000000"/>
      <sparseX i="1022" alpha="-206.14980397452873717" sparseCutoff="1.00000000000000000"/>
      <sparseX i="1023" alpha="-168.91545216006417718" sparseCutoff="1.00000000000000000"/>
      <sparseX i="1024" alpha="161.31688326148571377" sparseCutoff="1.00000000000000000"/>
      <sparseX i="1025" alpha="20.91105357966128864" sparseCutoff="1.00000000000000000"/>
      <sparseX i="1026" alpha="201.03518651416572993" sparseCutoff="1.00000000000000000"/>
      <sparseX i="1027" alpha="6.46564942031741285" sparseCutoff="1.00000000000000000"/>
      <sparseX i="1028" alpha="51.18568894135886893" sparseCutoff="1.00000000000000000"/>
      <sparseX i="1029" alpha="88.15741668966533950" sparseCutoff="1.00000000000000000"/>
      <sparseX i="1030" alpha="118.53097216232769995" sparseCutoff="1.00000000000000000"/>
      <sparseX i="1031" alpha="108.76299345604830648" sparseCutoff="1.00000000000000000"/>
      <sparseX i="1032" alpha="11.18024944430674950" sparseCutoff="1.00000000000000000"/>
      <sparseX i="1033" alpha="-76.91183975401355610" sparseCutoff="1.00000000000000000"/>
      <sparseX i="1034" alpha="-70.26367451090322902" sparseCutoff="1.00000000000000000"/>
      <sparseX i="1035" alpha="30.51683114958006371" sparseCutoff="1.00000000000000000"/>
      <sparseX i="1036" alpha="53.64427852816564979" sparseCutoff="1.00000000000000000"/>
      <sparseX i="1037" alpha="184.16301166260814171" sparseCutoff="1.00000000000000000"/>
      <sparseX i="1038" alpha="172.60490432503289071" sparseCutoff="1.00000000000000000"/>
      <sparseX i="1039" alpha="-685.56945555609308940" sparseCutoff="1.00000000000000000"/>
      <sparseX i="1040" alpha="-446.62092040017711270" sparseCutoff="1.00000000000000000"/>
      <sparseX i="1041" alpha="-360.96734546634888829" sparseCutoff="1.00000000000000000"/>
      <sparseX i="1042" alpha="-1206.47817498714107387" sparseCutoff="1.00000000000000000"/>
      <sparseX i="1043" alpha="543.90659755409251375" sparseCutoff="1.00000000000000000"/>
      <sparseX i="1044" alpha="651.72084890546796032" sparseCutoff="1.00000000000000000"/>
      <sparseX i="1045" alpha="302.42752529459698962" sparseCutoff="1.00000000000000000"/>
      <sparseX i="1046" alpha="322.79200559820253602" sparseCutoff="1.00000000000000000"/>
      <sparseX i="1047" alpha="424.16065655542240620" sparseCutoff="1.00000000000000000"/>
      <sparseX i="1048" alpha="-162.24990848261438714" sparseCutoff="1.00000000000000000"/>
      <sparseX i="1049" alpha="77.93356259671051589" sparseCutoff="1.00000000000000000"/>
      <sparseX i="1050" alpha="277.91782794229612819" sparseCutoff="1.00000000000000000"/>
      <sparseX i="1051" alpha="1127.92230160852682275" sparseCutoff="1.00000000000000000"/>
      <sparseX i="1052" alpha="358.66637727741618846" sparseCutoff="1.00000000000000000"/>
      <sparseX i="1053" alpha="497.06787890366598504" sparseCutoff="1.00000000000000000"/>
      <sparseX i="1054" alpha="482.58103450911551136" sparseCutoff="1.00000000000000000"/>
      <sparseX i="1055" alpha="445.08115427282325527" sparseCutoff="1.00000000000000000"/>
      <sparseX i="1056" alpha="391.13334364224436968" sparseCutoff="1.00000000000000000"/>
      <sparseX i="1057" alpha="-300.24923975358234429" sparseCutoff="1.00000000000000000"/>
      <sparseX i="1058" alpha="209.52687124736485202" sparseCutoff="1.00000000000000000"/>
      <sparseX i="1059" alpha="147.57871886475425072" sparseCutoff="1.00000000000000000"/>
      <sparseX i="1060" alpha="659.22290919425984157" sparseCutoff="1.00000000000000000"/>
      <sparseX i="1061" alpha="445.47729850351606729" sparseCutoff="1.00000000000000000"/>
      <sparseX i="1062" alpha="377.07791562821165599" sparseCutoff="1.00000000000000000"/>
      <sparseX i="1063" alpha="-546.10172515617352929" sparseCutoff="1.00000000000000000"/>
      <sparseX i="1064" alpha="70.47152231987516302" sparseCutoff="1.00000000000000000"/>
      <sparseX i="1065" alpha="1064.32770496500688751" sparseCutoff="1.00000000000000000"/>
      <sparseX i="1066" alpha="-76.98022604748950926" sparseCutoff="1.00000000000000000"/>
      <sparseX i="1067" alpha="-223.11185268358499911" sparseCutoff="1.00000000000000000"/>
      <sparseX i="1068" alpha="-112.38662720347133472" sparseCutoff="1.00000000000000000"/>
      <sparseX i="1069" alpha="186.48410258760705460" sparseCutoff="1.00000000000000000"/>
      <sparseX i="1070" alpha="497.38522155068551456" sparseCutoff="1.00000000000000000"/>
      <sparseX i="1071" alpha="622.78445820669776367" sparseCutoff="1.00000000000000000"/>
      <sparseX i="1072" alpha="510.80696334350699317" sparseCutoff="1.00000000000000000"/>
      <sparseX i="1073" alpha="495.78951589090479501" sparseCutoff="1.00000000000000000"/>
      <sparseX i="1074" alpha="458.47439758085880612" sparseCutoff="1.00000000000000000"/>
      <sparseX i="1075" alpha="633.46481877938833804" sparseCutoff="1.00000000000000000"/>
      <sparseX i="1076" alpha="605.32398614633780198" sparseCutoff="1.00000000000000000"/>
      <sparseX i="1077" alpha="770.75856214786040255" sparseCutoff="1.00000000000000000"/>
      <sparseX i="1078" alpha="660.22921457380596166" sparseCutoff="1.00000000000000000"/>
      <sparseX i="1079" alpha="-671.42796317568695486" sparseCutoff="1.00000000000000000"/>
      <sparseX i="1080" alpha="-802.30460409894942586" sparseCutoff="1.00000000000000000"/>
      <sparseX i="1081" alpha="-2512.37356874910346960" sparseCutoff="1.00000000000000000"/>
      <sparseX i="1082" alpha="2813.26340931340564566" sparseCutoff="1.00000000000000000"/>
      <sparseX i="1083" alpha="421.51088929082197865" sparseCutoff="1.00000000000000000"/>
      <sparseX i="1084" alpha="307.32393775547649284" sparseCutoff="1.00000000000000000"/>
      <sparseX i="1085" alpha="-210.70488120147615518" sparseCutoff="1.00000000000000000"/>
      <sparseX i="1086" alpha="-203.54942784373514542" sparseCutoff="1.00000000000000000"/>
      <sparseX i="1087" alpha="-1829.71653673990704192" sparseCutoff="1.00000000000000000"/>
      <sparseX i="1088" alpha="4175.80544112895859143" sparseCutoff="1.00000000000000000"/>
      <sparseX i="1089" alpha="-343.18335100744872079" sparseCutoff="1.00000000000000000"/>
      <sparseX i="1090" alpha="-1501.12743839269705859" sparseCutoff="1.00000000000000000"/>
      <sparseX i="1091" alpha="1440.37963600635066541" sparseCutoff="1.00000000000000000"/>
      <sparseX i="1092" alpha="-626.83732064143487150" sparseCutoff="1.00000000000000000"/>
      <sparseX i="1093" alpha="-1596.53225172583438507" sparseCutoff="1.00000000000000000"/>
      <sparseX i="1094" alpha="-1483.39690637359058201" sparseCutoff="1.00000000000000000"/>
      <sparseX i="1095" alpha="997.96918541380921397" sparseCutoff="1.00000000000000000"/>
      <sparseX i="1096" alpha="1854.52475900476451898" sparseCutoff="1.00000000000000000"/>
      <sparseX i="1097" alpha="1825.88030531261665601" sparseCutoff="1.00000000000000000"/>
      <sparseX i="1098" alpha="555.68647050902382034" sparseCutoff="1.00000000000000000"/>
      <sparseX i="1099" alpha="383.30905781830909973" sparseCutoff="1.00000000000000000"/>
